digraph Tree {
node [shape=box] ;
0 [label="X[7] <= 0.152\nentropy = 3.585\nsamples = 3176\nvalue = [1, 10, 43, 84, 201, 301, 441, 539, 483, 355, 199\n154, 98, 72, 51, 44, 27, 25, 21, 10, 4, 8, 1\n1, 1, 1, 1]"] ;
1 [label="X[7] <= 0.047\nentropy = 2.978\nsamples = 983\nvalue = [1, 10, 43, 84, 194, 242, 193, 93, 54, 26, 18, 13\n4, 3, 4, 0, 1, 0, 0, 0, 0, 0, 0, 0, 0, 0\n0]"] ;
0 -> 1 [labeldistance=2.5, labelangle=45, headlabel="True"] ;
2 [label="X[7] <= 0.021\nentropy = 2.461\nsamples = 215\nvalue = [1, 10, 42, 66, 53, 27, 11, 4, 0, 1, 0, 0, 0\n0, 0, 0, 0, 0, 0, 0, 0, 0, 0, 0, 0, 0, 0]"] ;
1 -> 2 ;
3 [label="X[6] <= 0.012\nentropy = 1.887\nsamples = 67\nvalue = [1, 10, 31, 20, 3, 2, 0, 0, 0, 0, 0, 0, 0, 0\n0, 0, 0, 0, 0, 0, 0, 0, 0, 0, 0, 0, 0]"] ;
2 -> 3 ;
4 [label="X[5] <= 0.005\nentropy = 1.746\nsamples = 46\nvalue = [1, 10, 24, 9, 0, 2, 0, 0, 0, 0, 0, 0, 0, 0\n0, 0, 0, 0, 0, 0, 0, 0, 0, 0, 0, 0, 0]"] ;
3 -> 4 ;
5 [label="X[2] <= 0.073\nentropy = 0.918\nsamples = 3\nvalue = [1, 2, 0, 0, 0, 0, 0, 0, 0, 0, 0, 0, 0, 0\n0, 0, 0, 0, 0, 0, 0, 0, 0, 0, 0, 0, 0]"] ;
4 -> 5 ;
6 [label="entropy = 0.0\nsamples = 1\nvalue = [1, 0, 0, 0, 0, 0, 0, 0, 0, 0, 0, 0, 0, 0\n0, 0, 0, 0, 0, 0, 0, 0, 0, 0, 0, 0, 0]"] ;
5 -> 6 ;
7 [label="entropy = 0.0\nsamples = 2\nvalue = [0, 2, 0, 0, 0, 0, 0, 0, 0, 0, 0, 0, 0, 0\n0, 0, 0, 0, 0, 0, 0, 0, 0, 0, 0, 0, 0]"] ;
5 -> 7 ;
8 [label="X[7] <= 0.015\nentropy = 1.599\nsamples = 43\nvalue = [0, 8, 24, 9, 0, 2, 0, 0, 0, 0, 0, 0, 0, 0\n0, 0, 0, 0, 0, 0, 0, 0, 0, 0, 0, 0, 0]"] ;
4 -> 8 ;
9 [label="X[7] <= 0.007\nentropy = 1.403\nsamples = 38\nvalue = [0, 8, 22, 8, 0, 0, 0, 0, 0, 0, 0, 0, 0, 0\n0, 0, 0, 0, 0, 0, 0, 0, 0, 0, 0, 0, 0]"] ;
8 -> 9 ;
10 [label="X[0] <= 0.5\nentropy = 0.469\nsamples = 10\nvalue = [0, 1, 9, 0, 0, 0, 0, 0, 0, 0, 0, 0, 0, 0\n0, 0, 0, 0, 0, 0, 0, 0, 0, 0, 0, 0, 0]"] ;
9 -> 10 ;
11 [label="entropy = 0.0\nsamples = 8\nvalue = [0, 0, 8, 0, 0, 0, 0, 0, 0, 0, 0, 0, 0, 0\n0, 0, 0, 0, 0, 0, 0, 0, 0, 0, 0, 0, 0]"] ;
10 -> 11 ;
12 [label="X[5] <= 0.008\nentropy = 1.0\nsamples = 2\nvalue = [0, 1, 1, 0, 0, 0, 0, 0, 0, 0, 0, 0, 0, 0\n0, 0, 0, 0, 0, 0, 0, 0, 0, 0, 0, 0, 0]"] ;
10 -> 12 ;
13 [label="entropy = 0.0\nsamples = 1\nvalue = [0, 1, 0, 0, 0, 0, 0, 0, 0, 0, 0, 0, 0, 0\n0, 0, 0, 0, 0, 0, 0, 0, 0, 0, 0, 0, 0]"] ;
12 -> 13 ;
14 [label="entropy = 0.0\nsamples = 1\nvalue = [0, 0, 1, 0, 0, 0, 0, 0, 0, 0, 0, 0, 0, 0\n0, 0, 0, 0, 0, 0, 0, 0, 0, 0, 0, 0, 0]"] ;
12 -> 14 ;
15 [label="X[3] <= 0.032\nentropy = 1.53\nsamples = 28\nvalue = [0, 7, 13, 8, 0, 0, 0, 0, 0, 0, 0, 0, 0, 0\n0, 0, 0, 0, 0, 0, 0, 0, 0, 0, 0, 0, 0]"] ;
9 -> 15 ;
16 [label="X[7] <= 0.01\nentropy = 0.918\nsamples = 3\nvalue = [0, 1, 0, 2, 0, 0, 0, 0, 0, 0, 0, 0, 0, 0\n0, 0, 0, 0, 0, 0, 0, 0, 0, 0, 0, 0, 0]"] ;
15 -> 16 ;
17 [label="entropy = 0.0\nsamples = 2\nvalue = [0, 0, 0, 2, 0, 0, 0, 0, 0, 0, 0, 0, 0, 0\n0, 0, 0, 0, 0, 0, 0, 0, 0, 0, 0, 0, 0]"] ;
16 -> 17 ;
18 [label="entropy = 0.0\nsamples = 1\nvalue = [0, 1, 0, 0, 0, 0, 0, 0, 0, 0, 0, 0, 0, 0\n0, 0, 0, 0, 0, 0, 0, 0, 0, 0, 0, 0, 0]"] ;
16 -> 18 ;
19 [label="X[3] <= 0.043\nentropy = 1.479\nsamples = 25\nvalue = [0, 6, 13, 6, 0, 0, 0, 0, 0, 0, 0, 0, 0, 0\n0, 0, 0, 0, 0, 0, 0, 0, 0, 0, 0, 0, 0]"] ;
15 -> 19 ;
20 [label="X[5] <= 0.01\nentropy = 0.863\nsamples = 7\nvalue = [0, 0, 5, 2, 0, 0, 0, 0, 0, 0, 0, 0, 0, 0\n0, 0, 0, 0, 0, 0, 0, 0, 0, 0, 0, 0, 0]"] ;
19 -> 20 ;
21 [label="entropy = 0.0\nsamples = 3\nvalue = [0, 0, 3, 0, 0, 0, 0, 0, 0, 0, 0, 0, 0, 0\n0, 0, 0, 0, 0, 0, 0, 0, 0, 0, 0, 0, 0]"] ;
20 -> 21 ;
22 [label="X[1] <= 0.188\nentropy = 1.0\nsamples = 4\nvalue = [0, 0, 2, 2, 0, 0, 0, 0, 0, 0, 0, 0, 0, 0\n0, 0, 0, 0, 0, 0, 0, 0, 0, 0, 0, 0, 0]"] ;
20 -> 22 ;
23 [label="entropy = 0.0\nsamples = 2\nvalue = [0, 0, 0, 2, 0, 0, 0, 0, 0, 0, 0, 0, 0, 0\n0, 0, 0, 0, 0, 0, 0, 0, 0, 0, 0, 0, 0]"] ;
22 -> 23 ;
24 [label="entropy = 0.0\nsamples = 2\nvalue = [0, 0, 2, 0, 0, 0, 0, 0, 0, 0, 0, 0, 0, 0\n0, 0, 0, 0, 0, 0, 0, 0, 0, 0, 0, 0, 0]"] ;
22 -> 24 ;
25 [label="X[6] <= 0.006\nentropy = 1.53\nsamples = 18\nvalue = [0, 6, 8, 4, 0, 0, 0, 0, 0, 0, 0, 0, 0, 0\n0, 0, 0, 0, 0, 0, 0, 0, 0, 0, 0, 0, 0]"] ;
19 -> 25 ;
26 [label="entropy = 0.0\nsamples = 2\nvalue = [0, 2, 0, 0, 0, 0, 0, 0, 0, 0, 0, 0, 0, 0\n0, 0, 0, 0, 0, 0, 0, 0, 0, 0, 0, 0, 0]"] ;
25 -> 26 ;
27 [label="X[6] <= 0.008\nentropy = 1.5\nsamples = 16\nvalue = [0, 4, 8, 4, 0, 0, 0, 0, 0, 0, 0, 0, 0, 0\n0, 0, 0, 0, 0, 0, 0, 0, 0, 0, 0, 0, 0]"] ;
25 -> 27 ;
28 [label="X[2] <= 0.142\nentropy = 0.954\nsamples = 8\nvalue = [0, 0, 5, 3, 0, 0, 0, 0, 0, 0, 0, 0, 0, 0\n0, 0, 0, 0, 0, 0, 0, 0, 0, 0, 0, 0, 0]"] ;
27 -> 28 ;
29 [label="X[3] <= 0.087\nentropy = 0.811\nsamples = 4\nvalue = [0, 0, 1, 3, 0, 0, 0, 0, 0, 0, 0, 0, 0, 0\n0, 0, 0, 0, 0, 0, 0, 0, 0, 0, 0, 0, 0]"] ;
28 -> 29 ;
30 [label="entropy = 0.0\nsamples = 3\nvalue = [0, 0, 0, 3, 0, 0, 0, 0, 0, 0, 0, 0, 0, 0\n0, 0, 0, 0, 0, 0, 0, 0, 0, 0, 0, 0, 0]"] ;
29 -> 30 ;
31 [label="entropy = 0.0\nsamples = 1\nvalue = [0, 0, 1, 0, 0, 0, 0, 0, 0, 0, 0, 0, 0, 0\n0, 0, 0, 0, 0, 0, 0, 0, 0, 0, 0, 0, 0]"] ;
29 -> 31 ;
32 [label="entropy = 0.0\nsamples = 4\nvalue = [0, 0, 4, 0, 0, 0, 0, 0, 0, 0, 0, 0, 0, 0\n0, 0, 0, 0, 0, 0, 0, 0, 0, 0, 0, 0, 0]"] ;
28 -> 32 ;
33 [label="X[2] <= 0.165\nentropy = 1.406\nsamples = 8\nvalue = [0, 4, 3, 1, 0, 0, 0, 0, 0, 0, 0, 0, 0, 0\n0, 0, 0, 0, 0, 0, 0, 0, 0, 0, 0, 0, 0]"] ;
27 -> 33 ;
34 [label="X[3] <= 0.057\nentropy = 0.985\nsamples = 7\nvalue = [0, 4, 3, 0, 0, 0, 0, 0, 0, 0, 0, 0, 0, 0\n0, 0, 0, 0, 0, 0, 0, 0, 0, 0, 0, 0, 0]"] ;
33 -> 34 ;
35 [label="X[7] <= 0.015\nentropy = 0.722\nsamples = 5\nvalue = [0, 4, 1, 0, 0, 0, 0, 0, 0, 0, 0, 0, 0, 0\n0, 0, 0, 0, 0, 0, 0, 0, 0, 0, 0, 0, 0]"] ;
34 -> 35 ;
36 [label="entropy = 0.0\nsamples = 4\nvalue = [0, 4, 0, 0, 0, 0, 0, 0, 0, 0, 0, 0, 0, 0\n0, 0, 0, 0, 0, 0, 0, 0, 0, 0, 0, 0, 0]"] ;
35 -> 36 ;
37 [label="entropy = 0.0\nsamples = 1\nvalue = [0, 0, 1, 0, 0, 0, 0, 0, 0, 0, 0, 0, 0, 0\n0, 0, 0, 0, 0, 0, 0, 0, 0, 0, 0, 0, 0]"] ;
35 -> 37 ;
38 [label="entropy = 0.0\nsamples = 2\nvalue = [0, 0, 2, 0, 0, 0, 0, 0, 0, 0, 0, 0, 0, 0\n0, 0, 0, 0, 0, 0, 0, 0, 0, 0, 0, 0, 0]"] ;
34 -> 38 ;
39 [label="entropy = 0.0\nsamples = 1\nvalue = [0, 0, 0, 1, 0, 0, 0, 0, 0, 0, 0, 0, 0, 0\n0, 0, 0, 0, 0, 0, 0, 0, 0, 0, 0, 0, 0]"] ;
33 -> 39 ;
40 [label="X[4] <= 0.058\nentropy = 1.522\nsamples = 5\nvalue = [0, 0, 2, 1, 0, 2, 0, 0, 0, 0, 0, 0, 0, 0\n0, 0, 0, 0, 0, 0, 0, 0, 0, 0, 0, 0, 0]"] ;
8 -> 40 ;
41 [label="entropy = 0.0\nsamples = 2\nvalue = [0, 0, 0, 0, 0, 2, 0, 0, 0, 0, 0, 0, 0, 0\n0, 0, 0, 0, 0, 0, 0, 0, 0, 0, 0, 0, 0]"] ;
40 -> 41 ;
42 [label="X[5] <= 0.027\nentropy = 0.918\nsamples = 3\nvalue = [0, 0, 2, 1, 0, 0, 0, 0, 0, 0, 0, 0, 0, 0\n0, 0, 0, 0, 0, 0, 0, 0, 0, 0, 0, 0, 0]"] ;
40 -> 42 ;
43 [label="entropy = 0.0\nsamples = 1\nvalue = [0, 0, 0, 1, 0, 0, 0, 0, 0, 0, 0, 0, 0, 0\n0, 0, 0, 0, 0, 0, 0, 0, 0, 0, 0, 0, 0]"] ;
42 -> 43 ;
44 [label="entropy = 0.0\nsamples = 2\nvalue = [0, 0, 2, 0, 0, 0, 0, 0, 0, 0, 0, 0, 0, 0\n0, 0, 0, 0, 0, 0, 0, 0, 0, 0, 0, 0, 0]"] ;
42 -> 44 ;
45 [label="X[2] <= 0.178\nentropy = 1.418\nsamples = 21\nvalue = [0, 0, 7, 11, 3, 0, 0, 0, 0, 0, 0, 0, 0, 0\n0, 0, 0, 0, 0, 0, 0, 0, 0, 0, 0, 0, 0]"] ;
3 -> 45 ;
46 [label="X[6] <= 0.014\nentropy = 1.149\nsamples = 14\nvalue = [0, 0, 2, 10, 2, 0, 0, 0, 0, 0, 0, 0, 0, 0\n0, 0, 0, 0, 0, 0, 0, 0, 0, 0, 0, 0, 0]"] ;
45 -> 46 ;
47 [label="X[7] <= 0.018\nentropy = 1.557\nsamples = 7\nvalue = [0, 0, 2, 3, 2, 0, 0, 0, 0, 0, 0, 0, 0, 0\n0, 0, 0, 0, 0, 0, 0, 0, 0, 0, 0, 0, 0]"] ;
46 -> 47 ;
48 [label="X[1] <= 0.227\nentropy = 1.522\nsamples = 5\nvalue = [0, 0, 2, 1, 2, 0, 0, 0, 0, 0, 0, 0, 0, 0\n0, 0, 0, 0, 0, 0, 0, 0, 0, 0, 0, 0, 0]"] ;
47 -> 48 ;
49 [label="X[5] <= 0.018\nentropy = 0.918\nsamples = 3\nvalue = [0, 0, 2, 0, 1, 0, 0, 0, 0, 0, 0, 0, 0, 0\n0, 0, 0, 0, 0, 0, 0, 0, 0, 0, 0, 0, 0]"] ;
48 -> 49 ;
50 [label="entropy = 0.0\nsamples = 1\nvalue = [0, 0, 0, 0, 1, 0, 0, 0, 0, 0, 0, 0, 0, 0\n0, 0, 0, 0, 0, 0, 0, 0, 0, 0, 0, 0, 0]"] ;
49 -> 50 ;
51 [label="entropy = 0.0\nsamples = 2\nvalue = [0, 0, 2, 0, 0, 0, 0, 0, 0, 0, 0, 0, 0, 0\n0, 0, 0, 0, 0, 0, 0, 0, 0, 0, 0, 0, 0]"] ;
49 -> 51 ;
52 [label="X[7] <= 0.017\nentropy = 1.0\nsamples = 2\nvalue = [0, 0, 0, 1, 1, 0, 0, 0, 0, 0, 0, 0, 0, 0\n0, 0, 0, 0, 0, 0, 0, 0, 0, 0, 0, 0, 0]"] ;
48 -> 52 ;
53 [label="entropy = 0.0\nsamples = 1\nvalue = [0, 0, 0, 1, 0, 0, 0, 0, 0, 0, 0, 0, 0, 0\n0, 0, 0, 0, 0, 0, 0, 0, 0, 0, 0, 0, 0]"] ;
52 -> 53 ;
54 [label="entropy = 0.0\nsamples = 1\nvalue = [0, 0, 0, 0, 1, 0, 0, 0, 0, 0, 0, 0, 0, 0\n0, 0, 0, 0, 0, 0, 0, 0, 0, 0, 0, 0, 0]"] ;
52 -> 54 ;
55 [label="entropy = 0.0\nsamples = 2\nvalue = [0, 0, 0, 2, 0, 0, 0, 0, 0, 0, 0, 0, 0, 0\n0, 0, 0, 0, 0, 0, 0, 0, 0, 0, 0, 0, 0]"] ;
47 -> 55 ;
56 [label="entropy = 0.0\nsamples = 7\nvalue = [0, 0, 0, 7, 0, 0, 0, 0, 0, 0, 0, 0, 0, 0\n0, 0, 0, 0, 0, 0, 0, 0, 0, 0, 0, 0, 0]"] ;
46 -> 56 ;
57 [label="X[1] <= 0.237\nentropy = 1.149\nsamples = 7\nvalue = [0, 0, 5, 1, 1, 0, 0, 0, 0, 0, 0, 0, 0, 0\n0, 0, 0, 0, 0, 0, 0, 0, 0, 0, 0, 0, 0]"] ;
45 -> 57 ;
58 [label="X[6] <= 0.014\nentropy = 1.0\nsamples = 2\nvalue = [0, 0, 0, 1, 1, 0, 0, 0, 0, 0, 0, 0, 0, 0\n0, 0, 0, 0, 0, 0, 0, 0, 0, 0, 0, 0, 0]"] ;
57 -> 58 ;
59 [label="entropy = 0.0\nsamples = 1\nvalue = [0, 0, 0, 1, 0, 0, 0, 0, 0, 0, 0, 0, 0, 0\n0, 0, 0, 0, 0, 0, 0, 0, 0, 0, 0, 0, 0]"] ;
58 -> 59 ;
60 [label="entropy = 0.0\nsamples = 1\nvalue = [0, 0, 0, 0, 1, 0, 0, 0, 0, 0, 0, 0, 0, 0\n0, 0, 0, 0, 0, 0, 0, 0, 0, 0, 0, 0, 0]"] ;
58 -> 60 ;
61 [label="entropy = 0.0\nsamples = 5\nvalue = [0, 0, 5, 0, 0, 0, 0, 0, 0, 0, 0, 0, 0, 0\n0, 0, 0, 0, 0, 0, 0, 0, 0, 0, 0, 0, 0]"] ;
57 -> 61 ;
62 [label="X[6] <= 0.032\nentropy = 2.233\nsamples = 148\nvalue = [0, 0, 11, 46, 50, 25, 11, 4, 0, 1, 0, 0, 0\n0, 0, 0, 0, 0, 0, 0, 0, 0, 0, 0, 0, 0, 0]"] ;
2 -> 62 ;
63 [label="X[6] <= 0.024\nentropy = 2.087\nsamples = 112\nvalue = [0, 0, 10, 38, 38, 15, 11, 0, 0, 0, 0, 0, 0\n0, 0, 0, 0, 0, 0, 0, 0, 0, 0, 0, 0, 0, 0]"] ;
62 -> 63 ;
64 [label="X[7] <= 0.031\nentropy = 1.929\nsamples = 63\nvalue = [0, 0, 5, 31, 15, 7, 5, 0, 0, 0, 0, 0, 0, 0\n0, 0, 0, 0, 0, 0, 0, 0, 0, 0, 0, 0, 0]"] ;
63 -> 64 ;
65 [label="X[4] <= 0.083\nentropy = 1.86\nsamples = 39\nvalue = [0, 0, 4, 17, 13, 4, 1, 0, 0, 0, 0, 0, 0, 0\n0, 0, 0, 0, 0, 0, 0, 0, 0, 0, 0, 0, 0]"] ;
64 -> 65 ;
66 [label="X[7] <= 0.026\nentropy = 1.325\nsamples = 12\nvalue = [0, 0, 0, 6, 5, 0, 1, 0, 0, 0, 0, 0, 0, 0\n0, 0, 0, 0, 0, 0, 0, 0, 0, 0, 0, 0, 0]"] ;
65 -> 66 ;
67 [label="X[2] <= 0.172\nentropy = 0.918\nsamples = 9\nvalue = [0, 0, 0, 6, 3, 0, 0, 0, 0, 0, 0, 0, 0, 0\n0, 0, 0, 0, 0, 0, 0, 0, 0, 0, 0, 0, 0]"] ;
66 -> 67 ;
68 [label="entropy = 0.0\nsamples = 1\nvalue = [0, 0, 0, 0, 1, 0, 0, 0, 0, 0, 0, 0, 0, 0\n0, 0, 0, 0, 0, 0, 0, 0, 0, 0, 0, 0, 0]"] ;
67 -> 68 ;
69 [label="X[7] <= 0.024\nentropy = 0.811\nsamples = 8\nvalue = [0, 0, 0, 6, 2, 0, 0, 0, 0, 0, 0, 0, 0, 0\n0, 0, 0, 0, 0, 0, 0, 0, 0, 0, 0, 0, 0]"] ;
67 -> 69 ;
70 [label="entropy = 0.0\nsamples = 4\nvalue = [0, 0, 0, 4, 0, 0, 0, 0, 0, 0, 0, 0, 0, 0\n0, 0, 0, 0, 0, 0, 0, 0, 0, 0, 0, 0, 0]"] ;
69 -> 70 ;
71 [label="X[4] <= 0.078\nentropy = 1.0\nsamples = 4\nvalue = [0, 0, 0, 2, 2, 0, 0, 0, 0, 0, 0, 0, 0, 0\n0, 0, 0, 0, 0, 0, 0, 0, 0, 0, 0, 0, 0]"] ;
69 -> 71 ;
72 [label="entropy = 0.0\nsamples = 2\nvalue = [0, 0, 0, 0, 2, 0, 0, 0, 0, 0, 0, 0, 0, 0\n0, 0, 0, 0, 0, 0, 0, 0, 0, 0, 0, 0, 0]"] ;
71 -> 72 ;
73 [label="entropy = 0.0\nsamples = 2\nvalue = [0, 0, 0, 2, 0, 0, 0, 0, 0, 0, 0, 0, 0, 0\n0, 0, 0, 0, 0, 0, 0, 0, 0, 0, 0, 0, 0]"] ;
71 -> 73 ;
74 [label="X[0] <= 0.5\nentropy = 0.918\nsamples = 3\nvalue = [0, 0, 0, 0, 2, 0, 1, 0, 0, 0, 0, 0, 0, 0\n0, 0, 0, 0, 0, 0, 0, 0, 0, 0, 0, 0, 0]"] ;
66 -> 74 ;
75 [label="entropy = 0.0\nsamples = 2\nvalue = [0, 0, 0, 0, 2, 0, 0, 0, 0, 0, 0, 0, 0, 0\n0, 0, 0, 0, 0, 0, 0, 0, 0, 0, 0, 0, 0]"] ;
74 -> 75 ;
76 [label="entropy = 0.0\nsamples = 1\nvalue = [0, 0, 0, 0, 0, 0, 1, 0, 0, 0, 0, 0, 0, 0\n0, 0, 0, 0, 0, 0, 0, 0, 0, 0, 0, 0, 0]"] ;
74 -> 76 ;
77 [label="X[4] <= 0.088\nentropy = 1.864\nsamples = 27\nvalue = [0, 0, 4, 11, 8, 4, 0, 0, 0, 0, 0, 0, 0, 0\n0, 0, 0, 0, 0, 0, 0, 0, 0, 0, 0, 0, 0]"] ;
65 -> 77 ;
78 [label="X[2] <= 0.192\nentropy = 1.459\nsamples = 6\nvalue = [0, 0, 2, 1, 0, 3, 0, 0, 0, 0, 0, 0, 0, 0\n0, 0, 0, 0, 0, 0, 0, 0, 0, 0, 0, 0, 0]"] ;
77 -> 78 ;
79 [label="X[5] <= 0.041\nentropy = 1.0\nsamples = 2\nvalue = [0, 0, 1, 1, 0, 0, 0, 0, 0, 0, 0, 0, 0, 0\n0, 0, 0, 0, 0, 0, 0, 0, 0, 0, 0, 0, 0]"] ;
78 -> 79 ;
80 [label="entropy = 0.0\nsamples = 1\nvalue = [0, 0, 0, 1, 0, 0, 0, 0, 0, 0, 0, 0, 0, 0\n0, 0, 0, 0, 0, 0, 0, 0, 0, 0, 0, 0, 0]"] ;
79 -> 80 ;
81 [label="entropy = 0.0\nsamples = 1\nvalue = [0, 0, 1, 0, 0, 0, 0, 0, 0, 0, 0, 0, 0, 0\n0, 0, 0, 0, 0, 0, 0, 0, 0, 0, 0, 0, 0]"] ;
79 -> 81 ;
82 [label="X[6] <= 0.02\nentropy = 0.811\nsamples = 4\nvalue = [0, 0, 1, 0, 0, 3, 0, 0, 0, 0, 0, 0, 0, 0\n0, 0, 0, 0, 0, 0, 0, 0, 0, 0, 0, 0, 0]"] ;
78 -> 82 ;
83 [label="entropy = 0.0\nsamples = 3\nvalue = [0, 0, 0, 0, 0, 3, 0, 0, 0, 0, 0, 0, 0, 0\n0, 0, 0, 0, 0, 0, 0, 0, 0, 0, 0, 0, 0]"] ;
82 -> 83 ;
84 [label="entropy = 0.0\nsamples = 1\nvalue = [0, 0, 1, 0, 0, 0, 0, 0, 0, 0, 0, 0, 0, 0\n0, 0, 0, 0, 0, 0, 0, 0, 0, 0, 0, 0, 0]"] ;
82 -> 84 ;
85 [label="X[1] <= 0.282\nentropy = 1.572\nsamples = 21\nvalue = [0, 0, 2, 10, 8, 1, 0, 0, 0, 0, 0, 0, 0, 0\n0, 0, 0, 0, 0, 0, 0, 0, 0, 0, 0, 0, 0]"] ;
77 -> 85 ;
86 [label="X[3] <= 0.067\nentropy = 1.592\nsamples = 16\nvalue = [0, 0, 2, 9, 4, 1, 0, 0, 0, 0, 0, 0, 0, 0\n0, 0, 0, 0, 0, 0, 0, 0, 0, 0, 0, 0, 0]"] ;
85 -> 86 ;
87 [label="X[3] <= 0.057\nentropy = 1.061\nsamples = 8\nvalue = [0, 0, 1, 6, 0, 1, 0, 0, 0, 0, 0, 0, 0, 0\n0, 0, 0, 0, 0, 0, 0, 0, 0, 0, 0, 0, 0]"] ;
86 -> 87 ;
88 [label="entropy = 0.0\nsamples = 1\nvalue = [0, 0, 1, 0, 0, 0, 0, 0, 0, 0, 0, 0, 0, 0\n0, 0, 0, 0, 0, 0, 0, 0, 0, 0, 0, 0, 0]"] ;
87 -> 88 ;
89 [label="X[4] <= 0.101\nentropy = 0.592\nsamples = 7\nvalue = [0, 0, 0, 6, 0, 1, 0, 0, 0, 0, 0, 0, 0, 0\n0, 0, 0, 0, 0, 0, 0, 0, 0, 0, 0, 0, 0]"] ;
87 -> 89 ;
90 [label="entropy = 0.0\nsamples = 5\nvalue = [0, 0, 0, 5, 0, 0, 0, 0, 0, 0, 0, 0, 0, 0\n0, 0, 0, 0, 0, 0, 0, 0, 0, 0, 0, 0, 0]"] ;
89 -> 90 ;
91 [label="X[2] <= 0.197\nentropy = 1.0\nsamples = 2\nvalue = [0, 0, 0, 1, 0, 1, 0, 0, 0, 0, 0, 0, 0, 0\n0, 0, 0, 0, 0, 0, 0, 0, 0, 0, 0, 0, 0]"] ;
89 -> 91 ;
92 [label="entropy = 0.0\nsamples = 1\nvalue = [0, 0, 0, 1, 0, 0, 0, 0, 0, 0, 0, 0, 0, 0\n0, 0, 0, 0, 0, 0, 0, 0, 0, 0, 0, 0, 0]"] ;
91 -> 92 ;
93 [label="entropy = 0.0\nsamples = 1\nvalue = [0, 0, 0, 0, 0, 1, 0, 0, 0, 0, 0, 0, 0, 0\n0, 0, 0, 0, 0, 0, 0, 0, 0, 0, 0, 0, 0]"] ;
91 -> 93 ;
94 [label="X[6] <= 0.021\nentropy = 1.406\nsamples = 8\nvalue = [0, 0, 1, 3, 4, 0, 0, 0, 0, 0, 0, 0, 0, 0\n0, 0, 0, 0, 0, 0, 0, 0, 0, 0, 0, 0, 0]"] ;
86 -> 94 ;
95 [label="X[7] <= 0.03\nentropy = 0.811\nsamples = 4\nvalue = [0, 0, 1, 0, 3, 0, 0, 0, 0, 0, 0, 0, 0, 0\n0, 0, 0, 0, 0, 0, 0, 0, 0, 0, 0, 0, 0]"] ;
94 -> 95 ;
96 [label="entropy = 0.0\nsamples = 3\nvalue = [0, 0, 0, 0, 3, 0, 0, 0, 0, 0, 0, 0, 0, 0\n0, 0, 0, 0, 0, 0, 0, 0, 0, 0, 0, 0, 0]"] ;
95 -> 96 ;
97 [label="entropy = 0.0\nsamples = 1\nvalue = [0, 0, 1, 0, 0, 0, 0, 0, 0, 0, 0, 0, 0, 0\n0, 0, 0, 0, 0, 0, 0, 0, 0, 0, 0, 0, 0]"] ;
95 -> 97 ;
98 [label="X[3] <= 0.075\nentropy = 0.811\nsamples = 4\nvalue = [0, 0, 0, 3, 1, 0, 0, 0, 0, 0, 0, 0, 0, 0\n0, 0, 0, 0, 0, 0, 0, 0, 0, 0, 0, 0, 0]"] ;
94 -> 98 ;
99 [label="entropy = 0.0\nsamples = 1\nvalue = [0, 0, 0, 0, 1, 0, 0, 0, 0, 0, 0, 0, 0, 0\n0, 0, 0, 0, 0, 0, 0, 0, 0, 0, 0, 0, 0]"] ;
98 -> 99 ;
100 [label="entropy = 0.0\nsamples = 3\nvalue = [0, 0, 0, 3, 0, 0, 0, 0, 0, 0, 0, 0, 0, 0\n0, 0, 0, 0, 0, 0, 0, 0, 0, 0, 0, 0, 0]"] ;
98 -> 100 ;
101 [label="X[6] <= 0.021\nentropy = 0.722\nsamples = 5\nvalue = [0, 0, 0, 1, 4, 0, 0, 0, 0, 0, 0, 0, 0, 0\n0, 0, 0, 0, 0, 0, 0, 0, 0, 0, 0, 0, 0]"] ;
85 -> 101 ;
102 [label="entropy = 0.0\nsamples = 1\nvalue = [0, 0, 0, 1, 0, 0, 0, 0, 0, 0, 0, 0, 0, 0\n0, 0, 0, 0, 0, 0, 0, 0, 0, 0, 0, 0, 0]"] ;
101 -> 102 ;
103 [label="entropy = 0.0\nsamples = 4\nvalue = [0, 0, 0, 0, 4, 0, 0, 0, 0, 0, 0, 0, 0, 0\n0, 0, 0, 0, 0, 0, 0, 0, 0, 0, 0, 0, 0]"] ;
101 -> 103 ;
104 [label="X[7] <= 0.04\nentropy = 1.749\nsamples = 24\nvalue = [0, 0, 1, 14, 2, 3, 4, 0, 0, 0, 0, 0, 0, 0\n0, 0, 0, 0, 0, 0, 0, 0, 0, 0, 0, 0, 0]"] ;
64 -> 104 ;
105 [label="X[5] <= 0.04\nentropy = 1.247\nsamples = 21\nvalue = [0, 0, 0, 14, 0, 3, 4, 0, 0, 0, 0, 0, 0, 0\n0, 0, 0, 0, 0, 0, 0, 0, 0, 0, 0, 0, 0]"] ;
104 -> 105 ;
106 [label="X[4] <= 0.096\nentropy = 0.971\nsamples = 5\nvalue = [0, 0, 0, 2, 0, 0, 3, 0, 0, 0, 0, 0, 0, 0\n0, 0, 0, 0, 0, 0, 0, 0, 0, 0, 0, 0, 0]"] ;
105 -> 106 ;
107 [label="entropy = 0.0\nsamples = 2\nvalue = [0, 0, 0, 2, 0, 0, 0, 0, 0, 0, 0, 0, 0, 0\n0, 0, 0, 0, 0, 0, 0, 0, 0, 0, 0, 0, 0]"] ;
106 -> 107 ;
108 [label="entropy = 0.0\nsamples = 3\nvalue = [0, 0, 0, 0, 0, 0, 3, 0, 0, 0, 0, 0, 0, 0\n0, 0, 0, 0, 0, 0, 0, 0, 0, 0, 0, 0, 0]"] ;
106 -> 108 ;
109 [label="X[6] <= 0.019\nentropy = 1.014\nsamples = 16\nvalue = [0, 0, 0, 12, 0, 3, 1, 0, 0, 0, 0, 0, 0, 0\n0, 0, 0, 0, 0, 0, 0, 0, 0, 0, 0, 0, 0]"] ;
105 -> 109 ;
110 [label="X[7] <= 0.035\nentropy = 1.449\nsamples = 7\nvalue = [0, 0, 0, 3, 0, 3, 1, 0, 0, 0, 0, 0, 0, 0\n0, 0, 0, 0, 0, 0, 0, 0, 0, 0, 0, 0, 0]"] ;
109 -> 110 ;
111 [label="X[3] <= 0.065\nentropy = 0.918\nsamples = 3\nvalue = [0, 0, 0, 2, 0, 0, 1, 0, 0, 0, 0, 0, 0, 0\n0, 0, 0, 0, 0, 0, 0, 0, 0, 0, 0, 0, 0]"] ;
110 -> 111 ;
112 [label="entropy = 0.0\nsamples = 2\nvalue = [0, 0, 0, 2, 0, 0, 0, 0, 0, 0, 0, 0, 0, 0\n0, 0, 0, 0, 0, 0, 0, 0, 0, 0, 0, 0, 0]"] ;
111 -> 112 ;
113 [label="entropy = 0.0\nsamples = 1\nvalue = [0, 0, 0, 0, 0, 0, 1, 0, 0, 0, 0, 0, 0, 0\n0, 0, 0, 0, 0, 0, 0, 0, 0, 0, 0, 0, 0]"] ;
111 -> 113 ;
114 [label="X[4] <= 0.12\nentropy = 0.811\nsamples = 4\nvalue = [0, 0, 0, 1, 0, 3, 0, 0, 0, 0, 0, 0, 0, 0\n0, 0, 0, 0, 0, 0, 0, 0, 0, 0, 0, 0, 0]"] ;
110 -> 114 ;
115 [label="entropy = 0.0\nsamples = 3\nvalue = [0, 0, 0, 0, 0, 3, 0, 0, 0, 0, 0, 0, 0, 0\n0, 0, 0, 0, 0, 0, 0, 0, 0, 0, 0, 0, 0]"] ;
114 -> 115 ;
116 [label="entropy = 0.0\nsamples = 1\nvalue = [0, 0, 0, 1, 0, 0, 0, 0, 0, 0, 0, 0, 0, 0\n0, 0, 0, 0, 0, 0, 0, 0, 0, 0, 0, 0, 0]"] ;
114 -> 116 ;
117 [label="entropy = 0.0\nsamples = 9\nvalue = [0, 0, 0, 9, 0, 0, 0, 0, 0, 0, 0, 0, 0, 0\n0, 0, 0, 0, 0, 0, 0, 0, 0, 0, 0, 0, 0]"] ;
109 -> 117 ;
118 [label="X[6] <= 0.02\nentropy = 0.918\nsamples = 3\nvalue = [0, 0, 1, 0, 2, 0, 0, 0, 0, 0, 0, 0, 0, 0\n0, 0, 0, 0, 0, 0, 0, 0, 0, 0, 0, 0, 0]"] ;
104 -> 118 ;
119 [label="entropy = 0.0\nsamples = 2\nvalue = [0, 0, 0, 0, 2, 0, 0, 0, 0, 0, 0, 0, 0, 0\n0, 0, 0, 0, 0, 0, 0, 0, 0, 0, 0, 0, 0]"] ;
118 -> 119 ;
120 [label="entropy = 0.0\nsamples = 1\nvalue = [0, 0, 1, 0, 0, 0, 0, 0, 0, 0, 0, 0, 0, 0\n0, 0, 0, 0, 0, 0, 0, 0, 0, 0, 0, 0, 0]"] ;
118 -> 120 ;
121 [label="X[5] <= 0.044\nentropy = 2.047\nsamples = 49\nvalue = [0, 0, 5, 7, 23, 8, 6, 0, 0, 0, 0, 0, 0, 0\n0, 0, 0, 0, 0, 0, 0, 0, 0, 0, 0, 0, 0]"] ;
63 -> 121 ;
122 [label="X[1] <= 0.292\nentropy = 1.846\nsamples = 10\nvalue = [0, 0, 0, 1, 3, 2, 4, 0, 0, 0, 0, 0, 0, 0\n0, 0, 0, 0, 0, 0, 0, 0, 0, 0, 0, 0, 0]"] ;
121 -> 122 ;
123 [label="X[7] <= 0.032\nentropy = 1.459\nsamples = 6\nvalue = [0, 0, 0, 1, 3, 2, 0, 0, 0, 0, 0, 0, 0, 0\n0, 0, 0, 0, 0, 0, 0, 0, 0, 0, 0, 0, 0]"] ;
122 -> 123 ;
124 [label="entropy = 0.0\nsamples = 3\nvalue = [0, 0, 0, 0, 3, 0, 0, 0, 0, 0, 0, 0, 0, 0\n0, 0, 0, 0, 0, 0, 0, 0, 0, 0, 0, 0, 0]"] ;
123 -> 124 ;
125 [label="X[2] <= 0.207\nentropy = 0.918\nsamples = 3\nvalue = [0, 0, 0, 1, 0, 2, 0, 0, 0, 0, 0, 0, 0, 0\n0, 0, 0, 0, 0, 0, 0, 0, 0, 0, 0, 0, 0]"] ;
123 -> 125 ;
126 [label="entropy = 0.0\nsamples = 1\nvalue = [0, 0, 0, 1, 0, 0, 0, 0, 0, 0, 0, 0, 0, 0\n0, 0, 0, 0, 0, 0, 0, 0, 0, 0, 0, 0, 0]"] ;
125 -> 126 ;
127 [label="entropy = 0.0\nsamples = 2\nvalue = [0, 0, 0, 0, 0, 2, 0, 0, 0, 0, 0, 0, 0, 0\n0, 0, 0, 0, 0, 0, 0, 0, 0, 0, 0, 0, 0]"] ;
125 -> 127 ;
128 [label="entropy = 0.0\nsamples = 4\nvalue = [0, 0, 0, 0, 0, 0, 4, 0, 0, 0, 0, 0, 0, 0\n0, 0, 0, 0, 0, 0, 0, 0, 0, 0, 0, 0, 0]"] ;
122 -> 128 ;
129 [label="X[5] <= 0.051\nentropy = 1.925\nsamples = 39\nvalue = [0, 0, 5, 6, 20, 6, 2, 0, 0, 0, 0, 0, 0, 0\n0, 0, 0, 0, 0, 0, 0, 0, 0, 0, 0, 0, 0]"] ;
121 -> 129 ;
130 [label="X[7] <= 0.04\nentropy = 1.555\nsamples = 12\nvalue = [0, 0, 4, 0, 5, 3, 0, 0, 0, 0, 0, 0, 0, 0\n0, 0, 0, 0, 0, 0, 0, 0, 0, 0, 0, 0, 0]"] ;
129 -> 130 ;
131 [label="X[2] <= 0.197\nentropy = 1.485\nsamples = 10\nvalue = [0, 0, 2, 0, 5, 3, 0, 0, 0, 0, 0, 0, 0, 0\n0, 0, 0, 0, 0, 0, 0, 0, 0, 0, 0, 0, 0]"] ;
130 -> 131 ;
132 [label="entropy = 0.0\nsamples = 2\nvalue = [0, 0, 2, 0, 0, 0, 0, 0, 0, 0, 0, 0, 0, 0\n0, 0, 0, 0, 0, 0, 0, 0, 0, 0, 0, 0, 0]"] ;
131 -> 132 ;
133 [label="X[6] <= 0.029\nentropy = 0.954\nsamples = 8\nvalue = [0, 0, 0, 0, 5, 3, 0, 0, 0, 0, 0, 0, 0, 0\n0, 0, 0, 0, 0, 0, 0, 0, 0, 0, 0, 0, 0]"] ;
131 -> 133 ;
134 [label="X[3] <= 0.06\nentropy = 0.65\nsamples = 6\nvalue = [0, 0, 0, 0, 5, 1, 0, 0, 0, 0, 0, 0, 0, 0\n0, 0, 0, 0, 0, 0, 0, 0, 0, 0, 0, 0, 0]"] ;
133 -> 134 ;
135 [label="entropy = 0.0\nsamples = 1\nvalue = [0, 0, 0, 0, 0, 1, 0, 0, 0, 0, 0, 0, 0, 0\n0, 0, 0, 0, 0, 0, 0, 0, 0, 0, 0, 0, 0]"] ;
134 -> 135 ;
136 [label="entropy = 0.0\nsamples = 5\nvalue = [0, 0, 0, 0, 5, 0, 0, 0, 0, 0, 0, 0, 0, 0\n0, 0, 0, 0, 0, 0, 0, 0, 0, 0, 0, 0, 0]"] ;
134 -> 136 ;
137 [label="entropy = 0.0\nsamples = 2\nvalue = [0, 0, 0, 0, 0, 2, 0, 0, 0, 0, 0, 0, 0, 0\n0, 0, 0, 0, 0, 0, 0, 0, 0, 0, 0, 0, 0]"] ;
133 -> 137 ;
138 [label="entropy = 0.0\nsamples = 2\nvalue = [0, 0, 2, 0, 0, 0, 0, 0, 0, 0, 0, 0, 0, 0\n0, 0, 0, 0, 0, 0, 0, 0, 0, 0, 0, 0, 0]"] ;
130 -> 138 ;
139 [label="X[4] <= 0.119\nentropy = 1.76\nsamples = 27\nvalue = [0, 0, 1, 6, 15, 3, 2, 0, 0, 0, 0, 0, 0, 0\n0, 0, 0, 0, 0, 0, 0, 0, 0, 0, 0, 0, 0]"] ;
129 -> 139 ;
140 [label="X[7] <= 0.03\nentropy = 1.0\nsamples = 2\nvalue = [0, 0, 1, 1, 0, 0, 0, 0, 0, 0, 0, 0, 0, 0\n0, 0, 0, 0, 0, 0, 0, 0, 0, 0, 0, 0, 0]"] ;
139 -> 140 ;
141 [label="entropy = 0.0\nsamples = 1\nvalue = [0, 0, 0, 1, 0, 0, 0, 0, 0, 0, 0, 0, 0, 0\n0, 0, 0, 0, 0, 0, 0, 0, 0, 0, 0, 0, 0]"] ;
140 -> 141 ;
142 [label="entropy = 0.0\nsamples = 1\nvalue = [0, 0, 1, 0, 0, 0, 0, 0, 0, 0, 0, 0, 0, 0\n0, 0, 0, 0, 0, 0, 0, 0, 0, 0, 0, 0, 0]"] ;
140 -> 142 ;
143 [label="X[6] <= 0.031\nentropy = 1.565\nsamples = 25\nvalue = [0, 0, 0, 5, 15, 3, 2, 0, 0, 0, 0, 0, 0, 0\n0, 0, 0, 0, 0, 0, 0, 0, 0, 0, 0, 0, 0]"] ;
139 -> 143 ;
144 [label="X[5] <= 0.054\nentropy = 1.384\nsamples = 23\nvalue = [0, 0, 0, 5, 15, 2, 1, 0, 0, 0, 0, 0, 0, 0\n0, 0, 0, 0, 0, 0, 0, 0, 0, 0, 0, 0, 0]"] ;
143 -> 144 ;
145 [label="X[7] <= 0.037\nentropy = 0.722\nsamples = 5\nvalue = [0, 0, 0, 0, 4, 0, 1, 0, 0, 0, 0, 0, 0, 0\n0, 0, 0, 0, 0, 0, 0, 0, 0, 0, 0, 0, 0]"] ;
144 -> 145 ;
146 [label="entropy = 0.0\nsamples = 4\nvalue = [0, 0, 0, 0, 4, 0, 0, 0, 0, 0, 0, 0, 0, 0\n0, 0, 0, 0, 0, 0, 0, 0, 0, 0, 0, 0, 0]"] ;
145 -> 146 ;
147 [label="entropy = 0.0\nsamples = 1\nvalue = [0, 0, 0, 0, 0, 0, 1, 0, 0, 0, 0, 0, 0, 0\n0, 0, 0, 0, 0, 0, 0, 0, 0, 0, 0, 0, 0]"] ;
145 -> 147 ;
148 [label="X[7] <= 0.037\nentropy = 1.3\nsamples = 18\nvalue = [0, 0, 0, 5, 11, 2, 0, 0, 0, 0, 0, 0, 0, 0\n0, 0, 0, 0, 0, 0, 0, 0, 0, 0, 0, 0, 0]"] ;
144 -> 148 ;
149 [label="X[1] <= 0.308\nentropy = 1.459\nsamples = 6\nvalue = [0, 0, 0, 3, 1, 2, 0, 0, 0, 0, 0, 0, 0, 0\n0, 0, 0, 0, 0, 0, 0, 0, 0, 0, 0, 0, 0]"] ;
148 -> 149 ;
150 [label="X[5] <= 0.058\nentropy = 0.811\nsamples = 4\nvalue = [0, 0, 0, 3, 1, 0, 0, 0, 0, 0, 0, 0, 0, 0\n0, 0, 0, 0, 0, 0, 0, 0, 0, 0, 0, 0, 0]"] ;
149 -> 150 ;
151 [label="entropy = 0.0\nsamples = 1\nvalue = [0, 0, 0, 0, 1, 0, 0, 0, 0, 0, 0, 0, 0, 0\n0, 0, 0, 0, 0, 0, 0, 0, 0, 0, 0, 0, 0]"] ;
150 -> 151 ;
152 [label="entropy = 0.0\nsamples = 3\nvalue = [0, 0, 0, 3, 0, 0, 0, 0, 0, 0, 0, 0, 0, 0\n0, 0, 0, 0, 0, 0, 0, 0, 0, 0, 0, 0, 0]"] ;
150 -> 152 ;
153 [label="entropy = 0.0\nsamples = 2\nvalue = [0, 0, 0, 0, 0, 2, 0, 0, 0, 0, 0, 0, 0, 0\n0, 0, 0, 0, 0, 0, 0, 0, 0, 0, 0, 0, 0]"] ;
149 -> 153 ;
154 [label="X[5] <= 0.055\nentropy = 0.65\nsamples = 12\nvalue = [0, 0, 0, 2, 10, 0, 0, 0, 0, 0, 0, 0, 0, 0\n0, 0, 0, 0, 0, 0, 0, 0, 0, 0, 0, 0, 0]"] ;
148 -> 154 ;
155 [label="entropy = 0.0\nsamples = 1\nvalue = [0, 0, 0, 1, 0, 0, 0, 0, 0, 0, 0, 0, 0, 0\n0, 0, 0, 0, 0, 0, 0, 0, 0, 0, 0, 0, 0]"] ;
154 -> 155 ;
156 [label="X[3] <= 0.088\nentropy = 0.439\nsamples = 11\nvalue = [0, 0, 0, 1, 10, 0, 0, 0, 0, 0, 0, 0, 0, 0\n0, 0, 0, 0, 0, 0, 0, 0, 0, 0, 0, 0, 0]"] ;
154 -> 156 ;
157 [label="entropy = 0.0\nsamples = 10\nvalue = [0, 0, 0, 0, 10, 0, 0, 0, 0, 0, 0, 0, 0, 0\n0, 0, 0, 0, 0, 0, 0, 0, 0, 0, 0, 0, 0]"] ;
156 -> 157 ;
158 [label="entropy = 0.0\nsamples = 1\nvalue = [0, 0, 0, 1, 0, 0, 0, 0, 0, 0, 0, 0, 0, 0\n0, 0, 0, 0, 0, 0, 0, 0, 0, 0, 0, 0, 0]"] ;
156 -> 158 ;
159 [label="X[3] <= 0.08\nentropy = 1.0\nsamples = 2\nvalue = [0, 0, 0, 0, 0, 1, 1, 0, 0, 0, 0, 0, 0, 0\n0, 0, 0, 0, 0, 0, 0, 0, 0, 0, 0, 0, 0]"] ;
143 -> 159 ;
160 [label="entropy = 0.0\nsamples = 1\nvalue = [0, 0, 0, 0, 0, 0, 1, 0, 0, 0, 0, 0, 0, 0\n0, 0, 0, 0, 0, 0, 0, 0, 0, 0, 0, 0, 0]"] ;
159 -> 160 ;
161 [label="entropy = 0.0\nsamples = 1\nvalue = [0, 0, 0, 0, 0, 1, 0, 0, 0, 0, 0, 0, 0, 0\n0, 0, 0, 0, 0, 0, 0, 0, 0, 0, 0, 0, 0]"] ;
159 -> 161 ;
162 [label="X[6] <= 0.041\nentropy = 2.163\nsamples = 36\nvalue = [0, 0, 1, 8, 12, 10, 0, 4, 0, 1, 0, 0, 0, 0\n0, 0, 0, 0, 0, 0, 0, 0, 0, 0, 0, 0, 0]"] ;
62 -> 162 ;
163 [label="X[4] <= 0.134\nentropy = 2.044\nsamples = 27\nvalue = [0, 0, 1, 2, 10, 10, 0, 3, 0, 1, 0, 0, 0, 0\n0, 0, 0, 0, 0, 0, 0, 0, 0, 0, 0, 0, 0]"] ;
162 -> 163 ;
164 [label="X[3] <= 0.082\nentropy = 1.792\nsamples = 6\nvalue = [0, 0, 0, 0, 1, 1, 0, 3, 0, 1, 0, 0, 0, 0\n0, 0, 0, 0, 0, 0, 0, 0, 0, 0, 0, 0, 0]"] ;
163 -> 164 ;
165 [label="X[4] <= 0.122\nentropy = 0.811\nsamples = 4\nvalue = [0, 0, 0, 0, 0, 0, 0, 3, 0, 1, 0, 0, 0, 0\n0, 0, 0, 0, 0, 0, 0, 0, 0, 0, 0, 0, 0]"] ;
164 -> 165 ;
166 [label="entropy = 0.0\nsamples = 1\nvalue = [0, 0, 0, 0, 0, 0, 0, 0, 0, 1, 0, 0, 0, 0\n0, 0, 0, 0, 0, 0, 0, 0, 0, 0, 0, 0, 0]"] ;
165 -> 166 ;
167 [label="entropy = 0.0\nsamples = 3\nvalue = [0, 0, 0, 0, 0, 0, 0, 3, 0, 0, 0, 0, 0, 0\n0, 0, 0, 0, 0, 0, 0, 0, 0, 0, 0, 0, 0]"] ;
165 -> 167 ;
168 [label="X[1] <= 0.305\nentropy = 1.0\nsamples = 2\nvalue = [0, 0, 0, 0, 1, 1, 0, 0, 0, 0, 0, 0, 0, 0\n0, 0, 0, 0, 0, 0, 0, 0, 0, 0, 0, 0, 0]"] ;
164 -> 168 ;
169 [label="entropy = 0.0\nsamples = 1\nvalue = [0, 0, 0, 0, 1, 0, 0, 0, 0, 0, 0, 0, 0, 0\n0, 0, 0, 0, 0, 0, 0, 0, 0, 0, 0, 0, 0]"] ;
168 -> 169 ;
170 [label="entropy = 0.0\nsamples = 1\nvalue = [0, 0, 0, 0, 0, 1, 0, 0, 0, 0, 0, 0, 0, 0\n0, 0, 0, 0, 0, 0, 0, 0, 0, 0, 0, 0, 0]"] ;
168 -> 170 ;
171 [label="X[4] <= 0.172\nentropy = 1.58\nsamples = 21\nvalue = [0, 0, 1, 2, 9, 9, 0, 0, 0, 0, 0, 0, 0, 0\n0, 0, 0, 0, 0, 0, 0, 0, 0, 0, 0, 0, 0]"] ;
163 -> 171 ;
172 [label="X[5] <= 0.06\nentropy = 1.609\nsamples = 17\nvalue = [0, 0, 1, 2, 9, 5, 0, 0, 0, 0, 0, 0, 0, 0\n0, 0, 0, 0, 0, 0, 0, 0, 0, 0, 0, 0, 0]"] ;
171 -> 172 ;
173 [label="X[7] <= 0.043\nentropy = 1.379\nsamples = 7\nvalue = [0, 0, 1, 0, 2, 4, 0, 0, 0, 0, 0, 0, 0, 0\n0, 0, 0, 0, 0, 0, 0, 0, 0, 0, 0, 0, 0]"] ;
172 -> 173 ;
174 [label="entropy = 0.0\nsamples = 2\nvalue = [0, 0, 0, 0, 2, 0, 0, 0, 0, 0, 0, 0, 0, 0\n0, 0, 0, 0, 0, 0, 0, 0, 0, 0, 0, 0, 0]"] ;
173 -> 174 ;
175 [label="X[0] <= 0.5\nentropy = 0.722\nsamples = 5\nvalue = [0, 0, 1, 0, 0, 4, 0, 0, 0, 0, 0, 0, 0, 0\n0, 0, 0, 0, 0, 0, 0, 0, 0, 0, 0, 0, 0]"] ;
173 -> 175 ;
176 [label="entropy = 0.0\nsamples = 4\nvalue = [0, 0, 0, 0, 0, 4, 0, 0, 0, 0, 0, 0, 0, 0\n0, 0, 0, 0, 0, 0, 0, 0, 0, 0, 0, 0, 0]"] ;
175 -> 176 ;
177 [label="entropy = 0.0\nsamples = 1\nvalue = [0, 0, 1, 0, 0, 0, 0, 0, 0, 0, 0, 0, 0, 0\n0, 0, 0, 0, 0, 0, 0, 0, 0, 0, 0, 0, 0]"] ;
175 -> 177 ;
178 [label="X[6] <= 0.037\nentropy = 1.157\nsamples = 10\nvalue = [0, 0, 0, 2, 7, 1, 0, 0, 0, 0, 0, 0, 0, 0\n0, 0, 0, 0, 0, 0, 0, 0, 0, 0, 0, 0, 0]"] ;
172 -> 178 ;
179 [label="X[6] <= 0.033\nentropy = 0.863\nsamples = 7\nvalue = [0, 0, 0, 2, 5, 0, 0, 0, 0, 0, 0, 0, 0, 0\n0, 0, 0, 0, 0, 0, 0, 0, 0, 0, 0, 0, 0]"] ;
178 -> 179 ;
180 [label="entropy = 0.0\nsamples = 1\nvalue = [0, 0, 0, 1, 0, 0, 0, 0, 0, 0, 0, 0, 0, 0\n0, 0, 0, 0, 0, 0, 0, 0, 0, 0, 0, 0, 0]"] ;
179 -> 180 ;
181 [label="X[2] <= 0.175\nentropy = 0.65\nsamples = 6\nvalue = [0, 0, 0, 1, 5, 0, 0, 0, 0, 0, 0, 0, 0, 0\n0, 0, 0, 0, 0, 0, 0, 0, 0, 0, 0, 0, 0]"] ;
179 -> 181 ;
182 [label="entropy = 0.0\nsamples = 1\nvalue = [0, 0, 0, 1, 0, 0, 0, 0, 0, 0, 0, 0, 0, 0\n0, 0, 0, 0, 0, 0, 0, 0, 0, 0, 0, 0, 0]"] ;
181 -> 182 ;
183 [label="entropy = 0.0\nsamples = 5\nvalue = [0, 0, 0, 0, 5, 0, 0, 0, 0, 0, 0, 0, 0, 0\n0, 0, 0, 0, 0, 0, 0, 0, 0, 0, 0, 0, 0]"] ;
181 -> 183 ;
184 [label="X[1] <= 0.308\nentropy = 0.918\nsamples = 3\nvalue = [0, 0, 0, 0, 2, 1, 0, 0, 0, 0, 0, 0, 0, 0\n0, 0, 0, 0, 0, 0, 0, 0, 0, 0, 0, 0, 0]"] ;
178 -> 184 ;
185 [label="entropy = 0.0\nsamples = 1\nvalue = [0, 0, 0, 0, 0, 1, 0, 0, 0, 0, 0, 0, 0, 0\n0, 0, 0, 0, 0, 0, 0, 0, 0, 0, 0, 0, 0]"] ;
184 -> 185 ;
186 [label="entropy = 0.0\nsamples = 2\nvalue = [0, 0, 0, 0, 2, 0, 0, 0, 0, 0, 0, 0, 0, 0\n0, 0, 0, 0, 0, 0, 0, 0, 0, 0, 0, 0, 0]"] ;
184 -> 186 ;
187 [label="entropy = 0.0\nsamples = 4\nvalue = [0, 0, 0, 0, 0, 4, 0, 0, 0, 0, 0, 0, 0, 0\n0, 0, 0, 0, 0, 0, 0, 0, 0, 0, 0, 0, 0]"] ;
171 -> 187 ;
188 [label="X[6] <= 0.055\nentropy = 1.224\nsamples = 9\nvalue = [0, 0, 0, 6, 2, 0, 0, 1, 0, 0, 0, 0, 0, 0\n0, 0, 0, 0, 0, 0, 0, 0, 0, 0, 0, 0, 0]"] ;
162 -> 188 ;
189 [label="entropy = 0.0\nsamples = 6\nvalue = [0, 0, 0, 6, 0, 0, 0, 0, 0, 0, 0, 0, 0, 0\n0, 0, 0, 0, 0, 0, 0, 0, 0, 0, 0, 0, 0]"] ;
188 -> 189 ;
190 [label="X[4] <= 0.152\nentropy = 0.918\nsamples = 3\nvalue = [0, 0, 0, 0, 2, 0, 0, 1, 0, 0, 0, 0, 0, 0\n0, 0, 0, 0, 0, 0, 0, 0, 0, 0, 0, 0, 0]"] ;
188 -> 190 ;
191 [label="entropy = 0.0\nsamples = 1\nvalue = [0, 0, 0, 0, 0, 0, 0, 1, 0, 0, 0, 0, 0, 0\n0, 0, 0, 0, 0, 0, 0, 0, 0, 0, 0, 0, 0]"] ;
190 -> 191 ;
192 [label="entropy = 0.0\nsamples = 2\nvalue = [0, 0, 0, 0, 2, 0, 0, 0, 0, 0, 0, 0, 0, 0\n0, 0, 0, 0, 0, 0, 0, 0, 0, 0, 0, 0, 0]"] ;
190 -> 192 ;
193 [label="X[7] <= 0.119\nentropy = 2.735\nsamples = 768\nvalue = [0, 0, 1, 18, 141, 215, 182, 89, 54, 25, 18, 13\n4, 3, 4, 0, 1, 0, 0, 0, 0, 0, 0, 0, 0, 0\n0]"] ;
1 -> 193 ;
194 [label="X[0] <= 0.5\nentropy = 2.605\nsamples = 500\nvalue = [0, 0, 1, 18, 128, 156, 87, 49, 28, 16, 8, 4, 3\n2, 0, 0, 0, 0, 0, 0, 0, 0, 0, 0, 0, 0, 0]"] ;
193 -> 194 ;
195 [label="X[7] <= 0.072\nentropy = 2.432\nsamples = 405\nvalue = [0, 0, 1, 18, 119, 135, 71, 25, 19, 8, 4, 3, 2\n0, 0, 0, 0, 0, 0, 0, 0, 0, 0, 0, 0, 0, 0]"] ;
194 -> 195 ;
196 [label="X[5] <= 0.075\nentropy = 2.171\nsamples = 131\nvalue = [0, 0, 1, 12, 51, 41, 18, 4, 2, 1, 0, 1, 0, 0\n0, 0, 0, 0, 0, 0, 0, 0, 0, 0, 0, 0, 0]"] ;
195 -> 196 ;
197 [label="X[6] <= 0.034\nentropy = 2.539\nsamples = 29\nvalue = [0, 0, 0, 2, 8, 7, 5, 4, 2, 0, 0, 1, 0, 0\n0, 0, 0, 0, 0, 0, 0, 0, 0, 0, 0, 0, 0]"] ;
196 -> 197 ;
198 [label="X[7] <= 0.052\nentropy = 2.197\nsamples = 9\nvalue = [0, 0, 0, 2, 3, 1, 2, 0, 0, 0, 0, 1, 0, 0\n0, 0, 0, 0, 0, 0, 0, 0, 0, 0, 0, 0, 0]"] ;
197 -> 198 ;
199 [label="X[4] <= 0.142\nentropy = 1.792\nsamples = 6\nvalue = [0, 0, 0, 1, 3, 1, 0, 0, 0, 0, 0, 1, 0, 0\n0, 0, 0, 0, 0, 0, 0, 0, 0, 0, 0, 0, 0]"] ;
198 -> 199 ;
200 [label="entropy = 0.0\nsamples = 1\nvalue = [0, 0, 0, 1, 0, 0, 0, 0, 0, 0, 0, 0, 0, 0\n0, 0, 0, 0, 0, 0, 0, 0, 0, 0, 0, 0, 0]"] ;
199 -> 200 ;
201 [label="X[3] <= 0.078\nentropy = 1.371\nsamples = 5\nvalue = [0, 0, 0, 0, 3, 1, 0, 0, 0, 0, 0, 1, 0, 0\n0, 0, 0, 0, 0, 0, 0, 0, 0, 0, 0, 0, 0]"] ;
199 -> 201 ;
202 [label="X[5] <= 0.057\nentropy = 0.811\nsamples = 4\nvalue = [0, 0, 0, 0, 3, 1, 0, 0, 0, 0, 0, 0, 0, 0\n0, 0, 0, 0, 0, 0, 0, 0, 0, 0, 0, 0, 0]"] ;
201 -> 202 ;
203 [label="entropy = 0.0\nsamples = 1\nvalue = [0, 0, 0, 0, 0, 1, 0, 0, 0, 0, 0, 0, 0, 0\n0, 0, 0, 0, 0, 0, 0, 0, 0, 0, 0, 0, 0]"] ;
202 -> 203 ;
204 [label="entropy = 0.0\nsamples = 3\nvalue = [0, 0, 0, 0, 3, 0, 0, 0, 0, 0, 0, 0, 0, 0\n0, 0, 0, 0, 0, 0, 0, 0, 0, 0, 0, 0, 0]"] ;
202 -> 204 ;
205 [label="entropy = 0.0\nsamples = 1\nvalue = [0, 0, 0, 0, 0, 0, 0, 0, 0, 0, 0, 1, 0, 0\n0, 0, 0, 0, 0, 0, 0, 0, 0, 0, 0, 0, 0]"] ;
201 -> 205 ;
206 [label="X[7] <= 0.058\nentropy = 0.918\nsamples = 3\nvalue = [0, 0, 0, 1, 0, 0, 2, 0, 0, 0, 0, 0, 0, 0\n0, 0, 0, 0, 0, 0, 0, 0, 0, 0, 0, 0, 0]"] ;
198 -> 206 ;
207 [label="entropy = 0.0\nsamples = 2\nvalue = [0, 0, 0, 0, 0, 0, 2, 0, 0, 0, 0, 0, 0, 0\n0, 0, 0, 0, 0, 0, 0, 0, 0, 0, 0, 0, 0]"] ;
206 -> 207 ;
208 [label="entropy = 0.0\nsamples = 1\nvalue = [0, 0, 0, 1, 0, 0, 0, 0, 0, 0, 0, 0, 0, 0\n0, 0, 0, 0, 0, 0, 0, 0, 0, 0, 0, 0, 0]"] ;
206 -> 208 ;
209 [label="X[1] <= 0.347\nentropy = 2.228\nsamples = 20\nvalue = [0, 0, 0, 0, 5, 6, 3, 4, 2, 0, 0, 0, 0, 0\n0, 0, 0, 0, 0, 0, 0, 0, 0, 0, 0, 0, 0]"] ;
197 -> 209 ;
210 [label="X[4] <= 0.167\nentropy = 1.918\nsamples = 12\nvalue = [0, 0, 0, 0, 4, 2, 2, 4, 0, 0, 0, 0, 0, 0\n0, 0, 0, 0, 0, 0, 0, 0, 0, 0, 0, 0, 0]"] ;
209 -> 210 ;
211 [label="X[3] <= 0.082\nentropy = 0.918\nsamples = 3\nvalue = [0, 0, 0, 0, 0, 0, 2, 1, 0, 0, 0, 0, 0, 0\n0, 0, 0, 0, 0, 0, 0, 0, 0, 0, 0, 0, 0]"] ;
210 -> 211 ;
212 [label="entropy = 0.0\nsamples = 1\nvalue = [0, 0, 0, 0, 0, 0, 0, 1, 0, 0, 0, 0, 0, 0\n0, 0, 0, 0, 0, 0, 0, 0, 0, 0, 0, 0, 0]"] ;
211 -> 212 ;
213 [label="entropy = 0.0\nsamples = 2\nvalue = [0, 0, 0, 0, 0, 0, 2, 0, 0, 0, 0, 0, 0, 0\n0, 0, 0, 0, 0, 0, 0, 0, 0, 0, 0, 0, 0]"] ;
211 -> 213 ;
214 [label="X[3] <= 0.093\nentropy = 1.53\nsamples = 9\nvalue = [0, 0, 0, 0, 4, 2, 0, 3, 0, 0, 0, 0, 0, 0\n0, 0, 0, 0, 0, 0, 0, 0, 0, 0, 0, 0, 0]"] ;
210 -> 214 ;
215 [label="X[6] <= 0.04\nentropy = 1.379\nsamples = 7\nvalue = [0, 0, 0, 0, 4, 2, 0, 1, 0, 0, 0, 0, 0, 0\n0, 0, 0, 0, 0, 0, 0, 0, 0, 0, 0, 0, 0]"] ;
214 -> 215 ;
216 [label="X[3] <= 0.088\nentropy = 0.918\nsamples = 3\nvalue = [0, 0, 0, 0, 1, 2, 0, 0, 0, 0, 0, 0, 0, 0\n0, 0, 0, 0, 0, 0, 0, 0, 0, 0, 0, 0, 0]"] ;
215 -> 216 ;
217 [label="entropy = 0.0\nsamples = 2\nvalue = [0, 0, 0, 0, 0, 2, 0, 0, 0, 0, 0, 0, 0, 0\n0, 0, 0, 0, 0, 0, 0, 0, 0, 0, 0, 0, 0]"] ;
216 -> 217 ;
218 [label="entropy = 0.0\nsamples = 1\nvalue = [0, 0, 0, 0, 1, 0, 0, 0, 0, 0, 0, 0, 0, 0\n0, 0, 0, 0, 0, 0, 0, 0, 0, 0, 0, 0, 0]"] ;
216 -> 218 ;
219 [label="X[3] <= 0.082\nentropy = 0.811\nsamples = 4\nvalue = [0, 0, 0, 0, 3, 0, 0, 1, 0, 0, 0, 0, 0, 0\n0, 0, 0, 0, 0, 0, 0, 0, 0, 0, 0, 0, 0]"] ;
215 -> 219 ;
220 [label="entropy = 0.0\nsamples = 3\nvalue = [0, 0, 0, 0, 3, 0, 0, 0, 0, 0, 0, 0, 0, 0\n0, 0, 0, 0, 0, 0, 0, 0, 0, 0, 0, 0, 0]"] ;
219 -> 220 ;
221 [label="entropy = 0.0\nsamples = 1\nvalue = [0, 0, 0, 0, 0, 0, 0, 1, 0, 0, 0, 0, 0, 0\n0, 0, 0, 0, 0, 0, 0, 0, 0, 0, 0, 0, 0]"] ;
219 -> 221 ;
222 [label="entropy = 0.0\nsamples = 2\nvalue = [0, 0, 0, 0, 0, 0, 0, 2, 0, 0, 0, 0, 0, 0\n0, 0, 0, 0, 0, 0, 0, 0, 0, 0, 0, 0, 0]"] ;
214 -> 222 ;
223 [label="X[6] <= 0.047\nentropy = 1.75\nsamples = 8\nvalue = [0, 0, 0, 0, 1, 4, 1, 0, 2, 0, 0, 0, 0, 0\n0, 0, 0, 0, 0, 0, 0, 0, 0, 0, 0, 0, 0]"] ;
209 -> 223 ;
224 [label="X[3] <= 0.088\nentropy = 0.918\nsamples = 6\nvalue = [0, 0, 0, 0, 0, 4, 0, 0, 2, 0, 0, 0, 0, 0\n0, 0, 0, 0, 0, 0, 0, 0, 0, 0, 0, 0, 0]"] ;
223 -> 224 ;
225 [label="X[2] <= 0.247\nentropy = 0.918\nsamples = 3\nvalue = [0, 0, 0, 0, 0, 1, 0, 0, 2, 0, 0, 0, 0, 0\n0, 0, 0, 0, 0, 0, 0, 0, 0, 0, 0, 0, 0]"] ;
224 -> 225 ;
226 [label="entropy = 0.0\nsamples = 1\nvalue = [0, 0, 0, 0, 0, 1, 0, 0, 0, 0, 0, 0, 0, 0\n0, 0, 0, 0, 0, 0, 0, 0, 0, 0, 0, 0, 0]"] ;
225 -> 226 ;
227 [label="entropy = 0.0\nsamples = 2\nvalue = [0, 0, 0, 0, 0, 0, 0, 0, 2, 0, 0, 0, 0, 0\n0, 0, 0, 0, 0, 0, 0, 0, 0, 0, 0, 0, 0]"] ;
225 -> 227 ;
228 [label="entropy = 0.0\nsamples = 3\nvalue = [0, 0, 0, 0, 0, 3, 0, 0, 0, 0, 0, 0, 0, 0\n0, 0, 0, 0, 0, 0, 0, 0, 0, 0, 0, 0, 0]"] ;
224 -> 228 ;
229 [label="X[5] <= 0.069\nentropy = 1.0\nsamples = 2\nvalue = [0, 0, 0, 0, 1, 0, 1, 0, 0, 0, 0, 0, 0, 0\n0, 0, 0, 0, 0, 0, 0, 0, 0, 0, 0, 0, 0]"] ;
223 -> 229 ;
230 [label="entropy = 0.0\nsamples = 1\nvalue = [0, 0, 0, 0, 1, 0, 0, 0, 0, 0, 0, 0, 0, 0\n0, 0, 0, 0, 0, 0, 0, 0, 0, 0, 0, 0, 0]"] ;
229 -> 230 ;
231 [label="entropy = 0.0\nsamples = 1\nvalue = [0, 0, 0, 0, 0, 0, 1, 0, 0, 0, 0, 0, 0, 0\n0, 0, 0, 0, 0, 0, 0, 0, 0, 0, 0, 0, 0]"] ;
229 -> 231 ;
232 [label="X[6] <= 0.033\nentropy = 1.892\nsamples = 102\nvalue = [0, 0, 1, 10, 43, 34, 13, 0, 0, 1, 0, 0, 0, 0\n0, 0, 0, 0, 0, 0, 0, 0, 0, 0, 0, 0, 0]"] ;
196 -> 232 ;
233 [label="X[5] <= 0.079\nentropy = 1.061\nsamples = 8\nvalue = [0, 0, 0, 0, 6, 0, 1, 0, 0, 1, 0, 0, 0, 0\n0, 0, 0, 0, 0, 0, 0, 0, 0, 0, 0, 0, 0]"] ;
232 -> 233 ;
234 [label="entropy = 0.0\nsamples = 1\nvalue = [0, 0, 0, 0, 0, 0, 0, 0, 0, 1, 0, 0, 0, 0\n0, 0, 0, 0, 0, 0, 0, 0, 0, 0, 0, 0, 0]"] ;
233 -> 234 ;
235 [label="X[3] <= 0.088\nentropy = 0.592\nsamples = 7\nvalue = [0, 0, 0, 0, 6, 0, 1, 0, 0, 0, 0, 0, 0, 0\n0, 0, 0, 0, 0, 0, 0, 0, 0, 0, 0, 0, 0]"] ;
233 -> 235 ;
236 [label="entropy = 0.0\nsamples = 5\nvalue = [0, 0, 0, 0, 5, 0, 0, 0, 0, 0, 0, 0, 0, 0\n0, 0, 0, 0, 0, 0, 0, 0, 0, 0, 0, 0, 0]"] ;
235 -> 236 ;
237 [label="X[4] <= 0.2\nentropy = 1.0\nsamples = 2\nvalue = [0, 0, 0, 0, 1, 0, 1, 0, 0, 0, 0, 0, 0, 0\n0, 0, 0, 0, 0, 0, 0, 0, 0, 0, 0, 0, 0]"] ;
235 -> 237 ;
238 [label="entropy = 0.0\nsamples = 1\nvalue = [0, 0, 0, 0, 0, 0, 1, 0, 0, 0, 0, 0, 0, 0\n0, 0, 0, 0, 0, 0, 0, 0, 0, 0, 0, 0, 0]"] ;
237 -> 238 ;
239 [label="entropy = 0.0\nsamples = 1\nvalue = [0, 0, 0, 0, 1, 0, 0, 0, 0, 0, 0, 0, 0, 0\n0, 0, 0, 0, 0, 0, 0, 0, 0, 0, 0, 0, 0]"] ;
237 -> 239 ;
240 [label="X[2] <= 0.212\nentropy = 1.853\nsamples = 94\nvalue = [0, 0, 1, 10, 37, 34, 12, 0, 0, 0, 0, 0, 0, 0\n0, 0, 0, 0, 0, 0, 0, 0, 0, 0, 0, 0, 0]"] ;
232 -> 240 ;
241 [label="entropy = 0.0\nsamples = 2\nvalue = [0, 0, 0, 2, 0, 0, 0, 0, 0, 0, 0, 0, 0, 0\n0, 0, 0, 0, 0, 0, 0, 0, 0, 0, 0, 0, 0]"] ;
240 -> 241 ;
242 [label="X[7] <= 0.061\nentropy = 1.82\nsamples = 92\nvalue = [0, 0, 1, 8, 37, 34, 12, 0, 0, 0, 0, 0, 0, 0\n0, 0, 0, 0, 0, 0, 0, 0, 0, 0, 0, 0, 0]"] ;
240 -> 242 ;
243 [label="X[6] <= 0.043\nentropy = 1.754\nsamples = 38\nvalue = [0, 0, 0, 6, 12, 17, 3, 0, 0, 0, 0, 0, 0, 0\n0, 0, 0, 0, 0, 0, 0, 0, 0, 0, 0, 0, 0]"] ;
242 -> 243 ;
244 [label="X[4] <= 0.195\nentropy = 1.41\nsamples = 23\nvalue = [0, 0, 0, 4, 6, 13, 0, 0, 0, 0, 0, 0, 0, 0\n0, 0, 0, 0, 0, 0, 0, 0, 0, 0, 0, 0, 0]"] ;
243 -> 244 ;
245 [label="X[3] <= 0.078\nentropy = 1.485\nsamples = 10\nvalue = [0, 0, 0, 2, 5, 3, 0, 0, 0, 0, 0, 0, 0, 0\n0, 0, 0, 0, 0, 0, 0, 0, 0, 0, 0, 0, 0]"] ;
244 -> 245 ;
246 [label="X[2] <= 0.23\nentropy = 0.971\nsamples = 5\nvalue = [0, 0, 0, 0, 2, 3, 0, 0, 0, 0, 0, 0, 0, 0\n0, 0, 0, 0, 0, 0, 0, 0, 0, 0, 0, 0, 0]"] ;
245 -> 246 ;
247 [label="entropy = 0.0\nsamples = 1\nvalue = [0, 0, 0, 0, 1, 0, 0, 0, 0, 0, 0, 0, 0, 0\n0, 0, 0, 0, 0, 0, 0, 0, 0, 0, 0, 0, 0]"] ;
246 -> 247 ;
248 [label="X[6] <= 0.035\nentropy = 0.811\nsamples = 4\nvalue = [0, 0, 0, 0, 1, 3, 0, 0, 0, 0, 0, 0, 0, 0\n0, 0, 0, 0, 0, 0, 0, 0, 0, 0, 0, 0, 0]"] ;
246 -> 248 ;
249 [label="entropy = 0.0\nsamples = 1\nvalue = [0, 0, 0, 0, 1, 0, 0, 0, 0, 0, 0, 0, 0, 0\n0, 0, 0, 0, 0, 0, 0, 0, 0, 0, 0, 0, 0]"] ;
248 -> 249 ;
250 [label="entropy = 0.0\nsamples = 3\nvalue = [0, 0, 0, 0, 0, 3, 0, 0, 0, 0, 0, 0, 0, 0\n0, 0, 0, 0, 0, 0, 0, 0, 0, 0, 0, 0, 0]"] ;
248 -> 250 ;
251 [label="X[3] <= 0.093\nentropy = 0.971\nsamples = 5\nvalue = [0, 0, 0, 2, 3, 0, 0, 0, 0, 0, 0, 0, 0, 0\n0, 0, 0, 0, 0, 0, 0, 0, 0, 0, 0, 0, 0]"] ;
245 -> 251 ;
252 [label="X[1] <= 0.363\nentropy = 0.918\nsamples = 3\nvalue = [0, 0, 0, 2, 1, 0, 0, 0, 0, 0, 0, 0, 0, 0\n0, 0, 0, 0, 0, 0, 0, 0, 0, 0, 0, 0, 0]"] ;
251 -> 252 ;
253 [label="entropy = 0.0\nsamples = 2\nvalue = [0, 0, 0, 2, 0, 0, 0, 0, 0, 0, 0, 0, 0, 0\n0, 0, 0, 0, 0, 0, 0, 0, 0, 0, 0, 0, 0]"] ;
252 -> 253 ;
254 [label="entropy = 0.0\nsamples = 1\nvalue = [0, 0, 0, 0, 1, 0, 0, 0, 0, 0, 0, 0, 0, 0\n0, 0, 0, 0, 0, 0, 0, 0, 0, 0, 0, 0, 0]"] ;
252 -> 254 ;
255 [label="entropy = 0.0\nsamples = 2\nvalue = [0, 0, 0, 0, 2, 0, 0, 0, 0, 0, 0, 0, 0, 0\n0, 0, 0, 0, 0, 0, 0, 0, 0, 0, 0, 0, 0]"] ;
251 -> 255 ;
256 [label="X[5] <= 0.098\nentropy = 0.991\nsamples = 13\nvalue = [0, 0, 0, 2, 1, 10, 0, 0, 0, 0, 0, 0, 0, 0\n0, 0, 0, 0, 0, 0, 0, 0, 0, 0, 0, 0, 0]"] ;
244 -> 256 ;
257 [label="X[3] <= 0.093\nentropy = 0.469\nsamples = 10\nvalue = [0, 0, 0, 1, 0, 9, 0, 0, 0, 0, 0, 0, 0, 0\n0, 0, 0, 0, 0, 0, 0, 0, 0, 0, 0, 0, 0]"] ;
256 -> 257 ;
258 [label="entropy = 0.0\nsamples = 9\nvalue = [0, 0, 0, 0, 0, 9, 0, 0, 0, 0, 0, 0, 0, 0\n0, 0, 0, 0, 0, 0, 0, 0, 0, 0, 0, 0, 0]"] ;
257 -> 258 ;
259 [label="entropy = 0.0\nsamples = 1\nvalue = [0, 0, 0, 1, 0, 0, 0, 0, 0, 0, 0, 0, 0, 0\n0, 0, 0, 0, 0, 0, 0, 0, 0, 0, 0, 0, 0]"] ;
257 -> 259 ;
260 [label="X[2] <= 0.248\nentropy = 1.585\nsamples = 3\nvalue = [0, 0, 0, 1, 1, 1, 0, 0, 0, 0, 0, 0, 0, 0\n0, 0, 0, 0, 0, 0, 0, 0, 0, 0, 0, 0, 0]"] ;
256 -> 260 ;
261 [label="entropy = 0.0\nsamples = 1\nvalue = [0, 0, 0, 0, 1, 0, 0, 0, 0, 0, 0, 0, 0, 0\n0, 0, 0, 0, 0, 0, 0, 0, 0, 0, 0, 0, 0]"] ;
260 -> 261 ;
262 [label="X[2] <= 0.252\nentropy = 1.0\nsamples = 2\nvalue = [0, 0, 0, 1, 0, 1, 0, 0, 0, 0, 0, 0, 0, 0\n0, 0, 0, 0, 0, 0, 0, 0, 0, 0, 0, 0, 0]"] ;
260 -> 262 ;
263 [label="entropy = 0.0\nsamples = 1\nvalue = [0, 0, 0, 0, 0, 1, 0, 0, 0, 0, 0, 0, 0, 0\n0, 0, 0, 0, 0, 0, 0, 0, 0, 0, 0, 0, 0]"] ;
262 -> 263 ;
264 [label="entropy = 0.0\nsamples = 1\nvalue = [0, 0, 0, 1, 0, 0, 0, 0, 0, 0, 0, 0, 0, 0\n0, 0, 0, 0, 0, 0, 0, 0, 0, 0, 0, 0, 0]"] ;
262 -> 264 ;
265 [label="X[3] <= 0.088\nentropy = 1.889\nsamples = 15\nvalue = [0, 0, 0, 2, 6, 4, 3, 0, 0, 0, 0, 0, 0, 0\n0, 0, 0, 0, 0, 0, 0, 0, 0, 0, 0, 0, 0]"] ;
243 -> 265 ;
266 [label="X[6] <= 0.048\nentropy = 1.436\nsamples = 9\nvalue = [0, 0, 0, 2, 5, 2, 0, 0, 0, 0, 0, 0, 0, 0\n0, 0, 0, 0, 0, 0, 0, 0, 0, 0, 0, 0, 0]"] ;
265 -> 266 ;
267 [label="X[6] <= 0.045\nentropy = 0.971\nsamples = 5\nvalue = [0, 0, 0, 2, 3, 0, 0, 0, 0, 0, 0, 0, 0, 0\n0, 0, 0, 0, 0, 0, 0, 0, 0, 0, 0, 0, 0]"] ;
266 -> 267 ;
268 [label="entropy = 0.0\nsamples = 2\nvalue = [0, 0, 0, 0, 2, 0, 0, 0, 0, 0, 0, 0, 0, 0\n0, 0, 0, 0, 0, 0, 0, 0, 0, 0, 0, 0, 0]"] ;
267 -> 268 ;
269 [label="X[4] <= 0.195\nentropy = 0.918\nsamples = 3\nvalue = [0, 0, 0, 2, 1, 0, 0, 0, 0, 0, 0, 0, 0, 0\n0, 0, 0, 0, 0, 0, 0, 0, 0, 0, 0, 0, 0]"] ;
267 -> 269 ;
270 [label="entropy = 0.0\nsamples = 1\nvalue = [0, 0, 0, 0, 1, 0, 0, 0, 0, 0, 0, 0, 0, 0\n0, 0, 0, 0, 0, 0, 0, 0, 0, 0, 0, 0, 0]"] ;
269 -> 270 ;
271 [label="entropy = 0.0\nsamples = 2\nvalue = [0, 0, 0, 2, 0, 0, 0, 0, 0, 0, 0, 0, 0, 0\n0, 0, 0, 0, 0, 0, 0, 0, 0, 0, 0, 0, 0]"] ;
269 -> 271 ;
272 [label="X[6] <= 0.052\nentropy = 1.0\nsamples = 4\nvalue = [0, 0, 0, 0, 2, 2, 0, 0, 0, 0, 0, 0, 0, 0\n0, 0, 0, 0, 0, 0, 0, 0, 0, 0, 0, 0, 0]"] ;
266 -> 272 ;
273 [label="entropy = 0.0\nsamples = 2\nvalue = [0, 0, 0, 0, 0, 2, 0, 0, 0, 0, 0, 0, 0, 0\n0, 0, 0, 0, 0, 0, 0, 0, 0, 0, 0, 0, 0]"] ;
272 -> 273 ;
274 [label="entropy = 0.0\nsamples = 2\nvalue = [0, 0, 0, 0, 2, 0, 0, 0, 0, 0, 0, 0, 0, 0\n0, 0, 0, 0, 0, 0, 0, 0, 0, 0, 0, 0, 0]"] ;
272 -> 274 ;
275 [label="X[1] <= 0.363\nentropy = 1.459\nsamples = 6\nvalue = [0, 0, 0, 0, 1, 2, 3, 0, 0, 0, 0, 0, 0, 0\n0, 0, 0, 0, 0, 0, 0, 0, 0, 0, 0, 0, 0]"] ;
265 -> 275 ;
276 [label="entropy = 0.0\nsamples = 3\nvalue = [0, 0, 0, 0, 0, 0, 3, 0, 0, 0, 0, 0, 0, 0\n0, 0, 0, 0, 0, 0, 0, 0, 0, 0, 0, 0, 0]"] ;
275 -> 276 ;
277 [label="X[3] <= 0.093\nentropy = 0.918\nsamples = 3\nvalue = [0, 0, 0, 0, 1, 2, 0, 0, 0, 0, 0, 0, 0, 0\n0, 0, 0, 0, 0, 0, 0, 0, 0, 0, 0, 0, 0]"] ;
275 -> 277 ;
278 [label="entropy = 0.0\nsamples = 1\nvalue = [0, 0, 0, 0, 1, 0, 0, 0, 0, 0, 0, 0, 0, 0\n0, 0, 0, 0, 0, 0, 0, 0, 0, 0, 0, 0, 0]"] ;
277 -> 278 ;
279 [label="entropy = 0.0\nsamples = 2\nvalue = [0, 0, 0, 0, 0, 2, 0, 0, 0, 0, 0, 0, 0, 0\n0, 0, 0, 0, 0, 0, 0, 0, 0, 0, 0, 0, 0]"] ;
277 -> 279 ;
280 [label="X[5] <= 0.089\nentropy = 1.753\nsamples = 54\nvalue = [0, 0, 1, 2, 25, 17, 9, 0, 0, 0, 0, 0, 0, 0\n0, 0, 0, 0, 0, 0, 0, 0, 0, 0, 0, 0, 0]"] ;
242 -> 280 ;
281 [label="X[4] <= 0.188\nentropy = 1.788\nsamples = 14\nvalue = [0, 0, 1, 0, 3, 6, 4, 0, 0, 0, 0, 0, 0, 0\n0, 0, 0, 0, 0, 0, 0, 0, 0, 0, 0, 0, 0]"] ;
280 -> 281 ;
282 [label="entropy = 0.0\nsamples = 2\nvalue = [0, 0, 0, 0, 2, 0, 0, 0, 0, 0, 0, 0, 0, 0\n0, 0, 0, 0, 0, 0, 0, 0, 0, 0, 0, 0, 0]"] ;
281 -> 282 ;
283 [label="X[5] <= 0.076\nentropy = 1.626\nsamples = 12\nvalue = [0, 0, 1, 0, 1, 6, 4, 0, 0, 0, 0, 0, 0, 0\n0, 0, 0, 0, 0, 0, 0, 0, 0, 0, 0, 0, 0]"] ;
281 -> 283 ;
284 [label="entropy = 0.0\nsamples = 1\nvalue = [0, 0, 0, 0, 1, 0, 0, 0, 0, 0, 0, 0, 0, 0\n0, 0, 0, 0, 0, 0, 0, 0, 0, 0, 0, 0, 0]"] ;
283 -> 284 ;
285 [label="X[6] <= 0.035\nentropy = 1.322\nsamples = 11\nvalue = [0, 0, 1, 0, 0, 6, 4, 0, 0, 0, 0, 0, 0, 0\n0, 0, 0, 0, 0, 0, 0, 0, 0, 0, 0, 0, 0]"] ;
283 -> 285 ;
286 [label="entropy = 0.0\nsamples = 1\nvalue = [0, 0, 1, 0, 0, 0, 0, 0, 0, 0, 0, 0, 0, 0\n0, 0, 0, 0, 0, 0, 0, 0, 0, 0, 0, 0, 0]"] ;
285 -> 286 ;
287 [label="X[4] <= 0.212\nentropy = 0.971\nsamples = 10\nvalue = [0, 0, 0, 0, 0, 6, 4, 0, 0, 0, 0, 0, 0, 0\n0, 0, 0, 0, 0, 0, 0, 0, 0, 0, 0, 0, 0]"] ;
285 -> 287 ;
288 [label="X[1] <= 0.333\nentropy = 0.985\nsamples = 7\nvalue = [0, 0, 0, 0, 0, 3, 4, 0, 0, 0, 0, 0, 0, 0\n0, 0, 0, 0, 0, 0, 0, 0, 0, 0, 0, 0, 0]"] ;
287 -> 288 ;
289 [label="entropy = 0.0\nsamples = 2\nvalue = [0, 0, 0, 0, 0, 2, 0, 0, 0, 0, 0, 0, 0, 0\n0, 0, 0, 0, 0, 0, 0, 0, 0, 0, 0, 0, 0]"] ;
288 -> 289 ;
290 [label="X[5] <= 0.078\nentropy = 0.722\nsamples = 5\nvalue = [0, 0, 0, 0, 0, 1, 4, 0, 0, 0, 0, 0, 0, 0\n0, 0, 0, 0, 0, 0, 0, 0, 0, 0, 0, 0, 0]"] ;
288 -> 290 ;
291 [label="entropy = 0.0\nsamples = 1\nvalue = [0, 0, 0, 0, 0, 1, 0, 0, 0, 0, 0, 0, 0, 0\n0, 0, 0, 0, 0, 0, 0, 0, 0, 0, 0, 0, 0]"] ;
290 -> 291 ;
292 [label="entropy = 0.0\nsamples = 4\nvalue = [0, 0, 0, 0, 0, 0, 4, 0, 0, 0, 0, 0, 0, 0\n0, 0, 0, 0, 0, 0, 0, 0, 0, 0, 0, 0, 0]"] ;
290 -> 292 ;
293 [label="entropy = 0.0\nsamples = 3\nvalue = [0, 0, 0, 0, 0, 3, 0, 0, 0, 0, 0, 0, 0, 0\n0, 0, 0, 0, 0, 0, 0, 0, 0, 0, 0, 0, 0]"] ;
287 -> 293 ;
294 [label="X[7] <= 0.067\nentropy = 1.578\nsamples = 40\nvalue = [0, 0, 0, 2, 22, 11, 5, 0, 0, 0, 0, 0, 0, 0\n0, 0, 0, 0, 0, 0, 0, 0, 0, 0, 0, 0, 0]"] ;
280 -> 294 ;
295 [label="X[4] <= 0.219\nentropy = 0.9\nsamples = 19\nvalue = [0, 0, 0, 0, 13, 6, 0, 0, 0, 0, 0, 0, 0, 0\n0, 0, 0, 0, 0, 0, 0, 0, 0, 0, 0, 0, 0]"] ;
294 -> 295 ;
296 [label="entropy = 0.0\nsamples = 8\nvalue = [0, 0, 0, 0, 8, 0, 0, 0, 0, 0, 0, 0, 0, 0\n0, 0, 0, 0, 0, 0, 0, 0, 0, 0, 0, 0, 0]"] ;
295 -> 296 ;
297 [label="X[1] <= 0.368\nentropy = 0.994\nsamples = 11\nvalue = [0, 0, 0, 0, 5, 6, 0, 0, 0, 0, 0, 0, 0, 0\n0, 0, 0, 0, 0, 0, 0, 0, 0, 0, 0, 0, 0]"] ;
295 -> 297 ;
298 [label="entropy = 0.0\nsamples = 5\nvalue = [0, 0, 0, 0, 0, 5, 0, 0, 0, 0, 0, 0, 0, 0\n0, 0, 0, 0, 0, 0, 0, 0, 0, 0, 0, 0, 0]"] ;
297 -> 298 ;
299 [label="X[5] <= 0.095\nentropy = 0.65\nsamples = 6\nvalue = [0, 0, 0, 0, 5, 1, 0, 0, 0, 0, 0, 0, 0, 0\n0, 0, 0, 0, 0, 0, 0, 0, 0, 0, 0, 0, 0]"] ;
297 -> 299 ;
300 [label="entropy = 0.0\nsamples = 1\nvalue = [0, 0, 0, 0, 0, 1, 0, 0, 0, 0, 0, 0, 0, 0\n0, 0, 0, 0, 0, 0, 0, 0, 0, 0, 0, 0, 0]"] ;
299 -> 300 ;
301 [label="entropy = 0.0\nsamples = 5\nvalue = [0, 0, 0, 0, 5, 0, 0, 0, 0, 0, 0, 0, 0, 0\n0, 0, 0, 0, 0, 0, 0, 0, 0, 0, 0, 0, 0]"] ;
299 -> 301 ;
302 [label="X[4] <= 0.256\nentropy = 1.833\nsamples = 21\nvalue = [0, 0, 0, 2, 9, 5, 5, 0, 0, 0, 0, 0, 0, 0\n0, 0, 0, 0, 0, 0, 0, 0, 0, 0, 0, 0, 0]"] ;
294 -> 302 ;
303 [label="X[4] <= 0.248\nentropy = 1.718\nsamples = 18\nvalue = [0, 0, 0, 2, 9, 2, 5, 0, 0, 0, 0, 0, 0, 0\n0, 0, 0, 0, 0, 0, 0, 0, 0, 0, 0, 0, 0]"] ;
302 -> 303 ;
304 [label="X[4] <= 0.239\nentropy = 1.863\nsamples = 14\nvalue = [0, 0, 0, 2, 5, 2, 5, 0, 0, 0, 0, 0, 0, 0\n0, 0, 0, 0, 0, 0, 0, 0, 0, 0, 0, 0, 0]"] ;
303 -> 304 ;
305 [label="X[7] <= 0.069\nentropy = 1.485\nsamples = 10\nvalue = [0, 0, 0, 0, 5, 2, 3, 0, 0, 0, 0, 0, 0, 0\n0, 0, 0, 0, 0, 0, 0, 0, 0, 0, 0, 0, 0]"] ;
304 -> 305 ;
306 [label="entropy = 0.0\nsamples = 2\nvalue = [0, 0, 0, 0, 0, 0, 2, 0, 0, 0, 0, 0, 0, 0\n0, 0, 0, 0, 0, 0, 0, 0, 0, 0, 0, 0, 0]"] ;
305 -> 306 ;
307 [label="X[6] <= 0.059\nentropy = 1.299\nsamples = 8\nvalue = [0, 0, 0, 0, 5, 2, 1, 0, 0, 0, 0, 0, 0, 0\n0, 0, 0, 0, 0, 0, 0, 0, 0, 0, 0, 0, 0]"] ;
305 -> 307 ;
308 [label="X[7] <= 0.07\nentropy = 0.65\nsamples = 6\nvalue = [0, 0, 0, 0, 5, 1, 0, 0, 0, 0, 0, 0, 0, 0\n0, 0, 0, 0, 0, 0, 0, 0, 0, 0, 0, 0, 0]"] ;
307 -> 308 ;
309 [label="entropy = 0.0\nsamples = 1\nvalue = [0, 0, 0, 0, 0, 1, 0, 0, 0, 0, 0, 0, 0, 0\n0, 0, 0, 0, 0, 0, 0, 0, 0, 0, 0, 0, 0]"] ;
308 -> 309 ;
310 [label="entropy = 0.0\nsamples = 5\nvalue = [0, 0, 0, 0, 5, 0, 0, 0, 0, 0, 0, 0, 0, 0\n0, 0, 0, 0, 0, 0, 0, 0, 0, 0, 0, 0, 0]"] ;
308 -> 310 ;
311 [label="X[1] <= 0.373\nentropy = 1.0\nsamples = 2\nvalue = [0, 0, 0, 0, 0, 1, 1, 0, 0, 0, 0, 0, 0, 0\n0, 0, 0, 0, 0, 0, 0, 0, 0, 0, 0, 0, 0]"] ;
307 -> 311 ;
312 [label="entropy = 0.0\nsamples = 1\nvalue = [0, 0, 0, 0, 0, 0, 1, 0, 0, 0, 0, 0, 0, 0\n0, 0, 0, 0, 0, 0, 0, 0, 0, 0, 0, 0, 0]"] ;
311 -> 312 ;
313 [label="entropy = 0.0\nsamples = 1\nvalue = [0, 0, 0, 0, 0, 1, 0, 0, 0, 0, 0, 0, 0, 0\n0, 0, 0, 0, 0, 0, 0, 0, 0, 0, 0, 0, 0]"] ;
311 -> 313 ;
314 [label="X[5] <= 0.104\nentropy = 1.0\nsamples = 4\nvalue = [0, 0, 0, 2, 0, 0, 2, 0, 0, 0, 0, 0, 0, 0\n0, 0, 0, 0, 0, 0, 0, 0, 0, 0, 0, 0, 0]"] ;
304 -> 314 ;
315 [label="entropy = 0.0\nsamples = 1\nvalue = [0, 0, 0, 1, 0, 0, 0, 0, 0, 0, 0, 0, 0, 0\n0, 0, 0, 0, 0, 0, 0, 0, 0, 0, 0, 0, 0]"] ;
314 -> 315 ;
316 [label="X[2] <= 0.293\nentropy = 0.918\nsamples = 3\nvalue = [0, 0, 0, 1, 0, 0, 2, 0, 0, 0, 0, 0, 0, 0\n0, 0, 0, 0, 0, 0, 0, 0, 0, 0, 0, 0, 0]"] ;
314 -> 316 ;
317 [label="entropy = 0.0\nsamples = 2\nvalue = [0, 0, 0, 0, 0, 0, 2, 0, 0, 0, 0, 0, 0, 0\n0, 0, 0, 0, 0, 0, 0, 0, 0, 0, 0, 0, 0]"] ;
316 -> 317 ;
318 [label="entropy = 0.0\nsamples = 1\nvalue = [0, 0, 0, 1, 0, 0, 0, 0, 0, 0, 0, 0, 0, 0\n0, 0, 0, 0, 0, 0, 0, 0, 0, 0, 0, 0, 0]"] ;
316 -> 318 ;
319 [label="entropy = 0.0\nsamples = 4\nvalue = [0, 0, 0, 0, 4, 0, 0, 0, 0, 0, 0, 0, 0, 0\n0, 0, 0, 0, 0, 0, 0, 0, 0, 0, 0, 0, 0]"] ;
303 -> 319 ;
320 [label="entropy = 0.0\nsamples = 3\nvalue = [0, 0, 0, 0, 0, 3, 0, 0, 0, 0, 0, 0, 0, 0\n0, 0, 0, 0, 0, 0, 0, 0, 0, 0, 0, 0, 0]"] ;
302 -> 320 ;
321 [label="X[5] <= 0.154\nentropy = 2.468\nsamples = 274\nvalue = [0, 0, 0, 6, 68, 94, 53, 21, 17, 7, 4, 2, 2\n0, 0, 0, 0, 0, 0, 0, 0, 0, 0, 0, 0, 0, 0]"] ;
195 -> 321 ;
322 [label="X[4] <= 0.343\nentropy = 2.617\nsamples = 159\nvalue = [0, 0, 0, 4, 32, 48, 34, 14, 17, 4, 3, 2, 1\n0, 0, 0, 0, 0, 0, 0, 0, 0, 0, 0, 0, 0, 0]"] ;
321 -> 322 ;
323 [label="X[1] <= 0.387\nentropy = 2.533\nsamples = 146\nvalue = [0, 0, 0, 4, 32, 46, 32, 10, 15, 2, 2, 2, 1\n0, 0, 0, 0, 0, 0, 0, 0, 0, 0, 0, 0, 0, 0]"] ;
322 -> 323 ;
324 [label="X[7] <= 0.089\nentropy = 2.539\nsamples = 63\nvalue = [0, 0, 0, 0, 14, 18, 9, 7, 11, 1, 2, 0, 1, 0\n0, 0, 0, 0, 0, 0, 0, 0, 0, 0, 0, 0, 0]"] ;
323 -> 324 ;
325 [label="X[7] <= 0.084\nentropy = 2.446\nsamples = 53\nvalue = [0, 0, 0, 0, 14, 13, 7, 7, 10, 1, 1, 0, 0, 0\n0, 0, 0, 0, 0, 0, 0, 0, 0, 0, 0, 0, 0]"] ;
324 -> 325 ;
326 [label="X[4] <= 0.221\nentropy = 2.369\nsamples = 43\nvalue = [0, 0, 0, 0, 9, 13, 7, 7, 6, 0, 1, 0, 0, 0\n0, 0, 0, 0, 0, 0, 0, 0, 0, 0, 0, 0, 0]"] ;
325 -> 326 ;
327 [label="X[5] <= 0.073\nentropy = 1.557\nsamples = 7\nvalue = [0, 0, 0, 0, 2, 0, 0, 2, 3, 0, 0, 0, 0, 0\n0, 0, 0, 0, 0, 0, 0, 0, 0, 0, 0, 0, 0]"] ;
326 -> 327 ;
328 [label="entropy = 0.0\nsamples = 2\nvalue = [0, 0, 0, 0, 0, 0, 0, 2, 0, 0, 0, 0, 0, 0\n0, 0, 0, 0, 0, 0, 0, 0, 0, 0, 0, 0, 0]"] ;
327 -> 328 ;
329 [label="X[2] <= 0.273\nentropy = 0.971\nsamples = 5\nvalue = [0, 0, 0, 0, 2, 0, 0, 0, 3, 0, 0, 0, 0, 0\n0, 0, 0, 0, 0, 0, 0, 0, 0, 0, 0, 0, 0]"] ;
327 -> 329 ;
330 [label="entropy = 0.0\nsamples = 3\nvalue = [0, 0, 0, 0, 0, 0, 0, 0, 3, 0, 0, 0, 0, 0\n0, 0, 0, 0, 0, 0, 0, 0, 0, 0, 0, 0, 0]"] ;
329 -> 330 ;
331 [label="entropy = 0.0\nsamples = 2\nvalue = [0, 0, 0, 0, 2, 0, 0, 0, 0, 0, 0, 0, 0, 0\n0, 0, 0, 0, 0, 0, 0, 0, 0, 0, 0, 0, 0]"] ;
329 -> 331 ;
332 [label="X[3] <= 0.102\nentropy = 2.287\nsamples = 36\nvalue = [0, 0, 0, 0, 7, 13, 7, 5, 3, 0, 1, 0, 0, 0\n0, 0, 0, 0, 0, 0, 0, 0, 0, 0, 0, 0, 0]"] ;
326 -> 332 ;
333 [label="X[3] <= 0.093\nentropy = 1.957\nsamples = 25\nvalue = [0, 0, 0, 0, 5, 11, 6, 2, 0, 0, 1, 0, 0, 0\n0, 0, 0, 0, 0, 0, 0, 0, 0, 0, 0, 0, 0]"] ;
332 -> 333 ;
334 [label="X[1] <= 0.382\nentropy = 1.241\nsamples = 11\nvalue = [0, 0, 0, 0, 0, 7, 3, 1, 0, 0, 0, 0, 0, 0\n0, 0, 0, 0, 0, 0, 0, 0, 0, 0, 0, 0, 0]"] ;
333 -> 334 ;
335 [label="entropy = 0.0\nsamples = 6\nvalue = [0, 0, 0, 0, 0, 6, 0, 0, 0, 0, 0, 0, 0, 0\n0, 0, 0, 0, 0, 0, 0, 0, 0, 0, 0, 0, 0]"] ;
334 -> 335 ;
336 [label="X[5] <= 0.093\nentropy = 1.371\nsamples = 5\nvalue = [0, 0, 0, 0, 0, 1, 3, 1, 0, 0, 0, 0, 0, 0\n0, 0, 0, 0, 0, 0, 0, 0, 0, 0, 0, 0, 0]"] ;
334 -> 336 ;
337 [label="entropy = 0.0\nsamples = 1\nvalue = [0, 0, 0, 0, 0, 1, 0, 0, 0, 0, 0, 0, 0, 0\n0, 0, 0, 0, 0, 0, 0, 0, 0, 0, 0, 0, 0]"] ;
336 -> 337 ;
338 [label="X[7] <= 0.075\nentropy = 0.811\nsamples = 4\nvalue = [0, 0, 0, 0, 0, 0, 3, 1, 0, 0, 0, 0, 0, 0\n0, 0, 0, 0, 0, 0, 0, 0, 0, 0, 0, 0, 0]"] ;
336 -> 338 ;
339 [label="entropy = 0.0\nsamples = 1\nvalue = [0, 0, 0, 0, 0, 0, 0, 1, 0, 0, 0, 0, 0, 0\n0, 0, 0, 0, 0, 0, 0, 0, 0, 0, 0, 0, 0]"] ;
338 -> 339 ;
340 [label="entropy = 0.0\nsamples = 3\nvalue = [0, 0, 0, 0, 0, 0, 3, 0, 0, 0, 0, 0, 0, 0\n0, 0, 0, 0, 0, 0, 0, 0, 0, 0, 0, 0, 0]"] ;
338 -> 340 ;
341 [label="X[5] <= 0.114\nentropy = 2.067\nsamples = 14\nvalue = [0, 0, 0, 0, 5, 4, 3, 1, 0, 0, 1, 0, 0, 0\n0, 0, 0, 0, 0, 0, 0, 0, 0, 0, 0, 0, 0]"] ;
333 -> 341 ;
342 [label="X[4] <= 0.23\nentropy = 1.379\nsamples = 7\nvalue = [0, 0, 0, 0, 4, 0, 2, 1, 0, 0, 0, 0, 0, 0\n0, 0, 0, 0, 0, 0, 0, 0, 0, 0, 0, 0, 0]"] ;
341 -> 342 ;
343 [label="entropy = 0.0\nsamples = 2\nvalue = [0, 0, 0, 0, 0, 0, 2, 0, 0, 0, 0, 0, 0, 0\n0, 0, 0, 0, 0, 0, 0, 0, 0, 0, 0, 0, 0]"] ;
342 -> 343 ;
344 [label="X[1] <= 0.368\nentropy = 0.722\nsamples = 5\nvalue = [0, 0, 0, 0, 4, 0, 0, 1, 0, 0, 0, 0, 0, 0\n0, 0, 0, 0, 0, 0, 0, 0, 0, 0, 0, 0, 0]"] ;
342 -> 344 ;
345 [label="entropy = 0.0\nsamples = 1\nvalue = [0, 0, 0, 0, 0, 0, 0, 1, 0, 0, 0, 0, 0, 0\n0, 0, 0, 0, 0, 0, 0, 0, 0, 0, 0, 0, 0]"] ;
344 -> 345 ;
346 [label="entropy = 0.0\nsamples = 4\nvalue = [0, 0, 0, 0, 4, 0, 0, 0, 0, 0, 0, 0, 0, 0\n0, 0, 0, 0, 0, 0, 0, 0, 0, 0, 0, 0, 0]"] ;
344 -> 346 ;
347 [label="X[7] <= 0.073\nentropy = 1.664\nsamples = 7\nvalue = [0, 0, 0, 0, 1, 4, 1, 0, 0, 0, 1, 0, 0, 0\n0, 0, 0, 0, 0, 0, 0, 0, 0, 0, 0, 0, 0]"] ;
341 -> 347 ;
348 [label="X[5] <= 0.124\nentropy = 1.0\nsamples = 2\nvalue = [0, 0, 0, 0, 0, 0, 1, 0, 0, 0, 1, 0, 0, 0\n0, 0, 0, 0, 0, 0, 0, 0, 0, 0, 0, 0, 0]"] ;
347 -> 348 ;
349 [label="entropy = 0.0\nsamples = 1\nvalue = [0, 0, 0, 0, 0, 0, 0, 0, 0, 0, 1, 0, 0, 0\n0, 0, 0, 0, 0, 0, 0, 0, 0, 0, 0, 0, 0]"] ;
348 -> 349 ;
350 [label="entropy = 0.0\nsamples = 1\nvalue = [0, 0, 0, 0, 0, 0, 1, 0, 0, 0, 0, 0, 0, 0\n0, 0, 0, 0, 0, 0, 0, 0, 0, 0, 0, 0, 0]"] ;
348 -> 350 ;
351 [label="X[1] <= 0.373\nentropy = 0.722\nsamples = 5\nvalue = [0, 0, 0, 0, 1, 4, 0, 0, 0, 0, 0, 0, 0, 0\n0, 0, 0, 0, 0, 0, 0, 0, 0, 0, 0, 0, 0]"] ;
347 -> 351 ;
352 [label="entropy = 0.0\nsamples = 3\nvalue = [0, 0, 0, 0, 0, 3, 0, 0, 0, 0, 0, 0, 0, 0\n0, 0, 0, 0, 0, 0, 0, 0, 0, 0, 0, 0, 0]"] ;
351 -> 352 ;
353 [label="X[5] <= 0.137\nentropy = 1.0\nsamples = 2\nvalue = [0, 0, 0, 0, 1, 1, 0, 0, 0, 0, 0, 0, 0, 0\n0, 0, 0, 0, 0, 0, 0, 0, 0, 0, 0, 0, 0]"] ;
351 -> 353 ;
354 [label="entropy = 0.0\nsamples = 1\nvalue = [0, 0, 0, 0, 1, 0, 0, 0, 0, 0, 0, 0, 0, 0\n0, 0, 0, 0, 0, 0, 0, 0, 0, 0, 0, 0, 0]"] ;
353 -> 354 ;
355 [label="entropy = 0.0\nsamples = 1\nvalue = [0, 0, 0, 0, 0, 1, 0, 0, 0, 0, 0, 0, 0, 0\n0, 0, 0, 0, 0, 0, 0, 0, 0, 0, 0, 0, 0]"] ;
353 -> 355 ;
356 [label="X[5] <= 0.109\nentropy = 2.231\nsamples = 11\nvalue = [0, 0, 0, 0, 2, 2, 1, 3, 3, 0, 0, 0, 0, 0\n0, 0, 0, 0, 0, 0, 0, 0, 0, 0, 0, 0, 0]"] ;
332 -> 356 ;
357 [label="X[1] <= 0.368\nentropy = 0.918\nsamples = 3\nvalue = [0, 0, 0, 0, 0, 2, 0, 0, 1, 0, 0, 0, 0, 0\n0, 0, 0, 0, 0, 0, 0, 0, 0, 0, 0, 0, 0]"] ;
356 -> 357 ;
358 [label="entropy = 0.0\nsamples = 2\nvalue = [0, 0, 0, 0, 0, 2, 0, 0, 0, 0, 0, 0, 0, 0\n0, 0, 0, 0, 0, 0, 0, 0, 0, 0, 0, 0, 0]"] ;
357 -> 358 ;
359 [label="entropy = 0.0\nsamples = 1\nvalue = [0, 0, 0, 0, 0, 0, 0, 0, 1, 0, 0, 0, 0, 0\n0, 0, 0, 0, 0, 0, 0, 0, 0, 0, 0, 0, 0]"] ;
357 -> 359 ;
360 [label="X[2] <= 0.297\nentropy = 1.906\nsamples = 8\nvalue = [0, 0, 0, 0, 2, 0, 1, 3, 2, 0, 0, 0, 0, 0\n0, 0, 0, 0, 0, 0, 0, 0, 0, 0, 0, 0, 0]"] ;
356 -> 360 ;
361 [label="X[4] <= 0.294\nentropy = 1.459\nsamples = 6\nvalue = [0, 0, 0, 0, 2, 0, 1, 3, 0, 0, 0, 0, 0, 0\n0, 0, 0, 0, 0, 0, 0, 0, 0, 0, 0, 0, 0]"] ;
360 -> 361 ;
362 [label="X[2] <= 0.28\nentropy = 0.971\nsamples = 5\nvalue = [0, 0, 0, 0, 2, 0, 0, 3, 0, 0, 0, 0, 0, 0\n0, 0, 0, 0, 0, 0, 0, 0, 0, 0, 0, 0, 0]"] ;
361 -> 362 ;
363 [label="X[5] <= 0.13\nentropy = 0.918\nsamples = 3\nvalue = [0, 0, 0, 0, 2, 0, 0, 1, 0, 0, 0, 0, 0, 0\n0, 0, 0, 0, 0, 0, 0, 0, 0, 0, 0, 0, 0]"] ;
362 -> 363 ;
364 [label="entropy = 0.0\nsamples = 2\nvalue = [0, 0, 0, 0, 2, 0, 0, 0, 0, 0, 0, 0, 0, 0\n0, 0, 0, 0, 0, 0, 0, 0, 0, 0, 0, 0, 0]"] ;
363 -> 364 ;
365 [label="entropy = 0.0\nsamples = 1\nvalue = [0, 0, 0, 0, 0, 0, 0, 1, 0, 0, 0, 0, 0, 0\n0, 0, 0, 0, 0, 0, 0, 0, 0, 0, 0, 0, 0]"] ;
363 -> 365 ;
366 [label="entropy = 0.0\nsamples = 2\nvalue = [0, 0, 0, 0, 0, 0, 0, 2, 0, 0, 0, 0, 0, 0\n0, 0, 0, 0, 0, 0, 0, 0, 0, 0, 0, 0, 0]"] ;
362 -> 366 ;
367 [label="entropy = 0.0\nsamples = 1\nvalue = [0, 0, 0, 0, 0, 0, 1, 0, 0, 0, 0, 0, 0, 0\n0, 0, 0, 0, 0, 0, 0, 0, 0, 0, 0, 0, 0]"] ;
361 -> 367 ;
368 [label="entropy = 0.0\nsamples = 2\nvalue = [0, 0, 0, 0, 0, 0, 0, 0, 2, 0, 0, 0, 0, 0\n0, 0, 0, 0, 0, 0, 0, 0, 0, 0, 0, 0, 0]"] ;
360 -> 368 ;
369 [label="X[5] <= 0.1\nentropy = 1.361\nsamples = 10\nvalue = [0, 0, 0, 0, 5, 0, 0, 0, 4, 1, 0, 0, 0, 0\n0, 0, 0, 0, 0, 0, 0, 0, 0, 0, 0, 0, 0]"] ;
325 -> 369 ;
370 [label="X[1] <= 0.358\nentropy = 0.811\nsamples = 4\nvalue = [0, 0, 0, 0, 0, 0, 0, 0, 3, 1, 0, 0, 0, 0\n0, 0, 0, 0, 0, 0, 0, 0, 0, 0, 0, 0, 0]"] ;
369 -> 370 ;
371 [label="entropy = 0.0\nsamples = 1\nvalue = [0, 0, 0, 0, 0, 0, 0, 0, 0, 1, 0, 0, 0, 0\n0, 0, 0, 0, 0, 0, 0, 0, 0, 0, 0, 0, 0]"] ;
370 -> 371 ;
372 [label="entropy = 0.0\nsamples = 3\nvalue = [0, 0, 0, 0, 0, 0, 0, 0, 3, 0, 0, 0, 0, 0\n0, 0, 0, 0, 0, 0, 0, 0, 0, 0, 0, 0, 0]"] ;
370 -> 372 ;
373 [label="X[4] <= 0.254\nentropy = 0.65\nsamples = 6\nvalue = [0, 0, 0, 0, 5, 0, 0, 0, 1, 0, 0, 0, 0, 0\n0, 0, 0, 0, 0, 0, 0, 0, 0, 0, 0, 0, 0]"] ;
369 -> 373 ;
374 [label="X[1] <= 0.377\nentropy = 1.0\nsamples = 2\nvalue = [0, 0, 0, 0, 1, 0, 0, 0, 1, 0, 0, 0, 0, 0\n0, 0, 0, 0, 0, 0, 0, 0, 0, 0, 0, 0, 0]"] ;
373 -> 374 ;
375 [label="entropy = 0.0\nsamples = 1\nvalue = [0, 0, 0, 0, 0, 0, 0, 0, 1, 0, 0, 0, 0, 0\n0, 0, 0, 0, 0, 0, 0, 0, 0, 0, 0, 0, 0]"] ;
374 -> 375 ;
376 [label="entropy = 0.0\nsamples = 1\nvalue = [0, 0, 0, 0, 1, 0, 0, 0, 0, 0, 0, 0, 0, 0\n0, 0, 0, 0, 0, 0, 0, 0, 0, 0, 0, 0, 0]"] ;
374 -> 376 ;
377 [label="entropy = 0.0\nsamples = 4\nvalue = [0, 0, 0, 0, 4, 0, 0, 0, 0, 0, 0, 0, 0, 0\n0, 0, 0, 0, 0, 0, 0, 0, 0, 0, 0, 0, 0]"] ;
373 -> 377 ;
378 [label="X[4] <= 0.285\nentropy = 1.961\nsamples = 10\nvalue = [0, 0, 0, 0, 0, 5, 2, 0, 1, 0, 1, 0, 1, 0\n0, 0, 0, 0, 0, 0, 0, 0, 0, 0, 0, 0, 0]"] ;
324 -> 378 ;
379 [label="X[1] <= 0.377\nentropy = 1.922\nsamples = 5\nvalue = [0, 0, 0, 0, 0, 1, 2, 0, 0, 0, 1, 0, 1, 0\n0, 0, 0, 0, 0, 0, 0, 0, 0, 0, 0, 0, 0]"] ;
378 -> 379 ;
380 [label="X[4] <= 0.221\nentropy = 0.918\nsamples = 3\nvalue = [0, 0, 0, 0, 0, 1, 2, 0, 0, 0, 0, 0, 0, 0\n0, 0, 0, 0, 0, 0, 0, 0, 0, 0, 0, 0, 0]"] ;
379 -> 380 ;
381 [label="entropy = 0.0\nsamples = 1\nvalue = [0, 0, 0, 0, 0, 1, 0, 0, 0, 0, 0, 0, 0, 0\n0, 0, 0, 0, 0, 0, 0, 0, 0, 0, 0, 0, 0]"] ;
380 -> 381 ;
382 [label="entropy = 0.0\nsamples = 2\nvalue = [0, 0, 0, 0, 0, 0, 2, 0, 0, 0, 0, 0, 0, 0\n0, 0, 0, 0, 0, 0, 0, 0, 0, 0, 0, 0, 0]"] ;
380 -> 382 ;
383 [label="X[1] <= 0.382\nentropy = 1.0\nsamples = 2\nvalue = [0, 0, 0, 0, 0, 0, 0, 0, 0, 0, 1, 0, 1, 0\n0, 0, 0, 0, 0, 0, 0, 0, 0, 0, 0, 0, 0]"] ;
379 -> 383 ;
384 [label="entropy = 0.0\nsamples = 1\nvalue = [0, 0, 0, 0, 0, 0, 0, 0, 0, 0, 1, 0, 0, 0\n0, 0, 0, 0, 0, 0, 0, 0, 0, 0, 0, 0, 0]"] ;
383 -> 384 ;
385 [label="entropy = 0.0\nsamples = 1\nvalue = [0, 0, 0, 0, 0, 0, 0, 0, 0, 0, 0, 0, 1, 0\n0, 0, 0, 0, 0, 0, 0, 0, 0, 0, 0, 0, 0]"] ;
383 -> 385 ;
386 [label="X[2] <= 0.315\nentropy = 0.722\nsamples = 5\nvalue = [0, 0, 0, 0, 0, 4, 0, 0, 1, 0, 0, 0, 0, 0\n0, 0, 0, 0, 0, 0, 0, 0, 0, 0, 0, 0, 0]"] ;
378 -> 386 ;
387 [label="entropy = 0.0\nsamples = 4\nvalue = [0, 0, 0, 0, 0, 4, 0, 0, 0, 0, 0, 0, 0, 0\n0, 0, 0, 0, 0, 0, 0, 0, 0, 0, 0, 0, 0]"] ;
386 -> 387 ;
388 [label="entropy = 0.0\nsamples = 1\nvalue = [0, 0, 0, 0, 0, 0, 0, 0, 1, 0, 0, 0, 0, 0\n0, 0, 0, 0, 0, 0, 0, 0, 0, 0, 0, 0, 0]"] ;
386 -> 388 ;
389 [label="X[7] <= 0.084\nentropy = 2.321\nsamples = 83\nvalue = [0, 0, 0, 4, 18, 28, 23, 3, 4, 1, 0, 2, 0, 0\n0, 0, 0, 0, 0, 0, 0, 0, 0, 0, 0, 0, 0]"] ;
323 -> 389 ;
390 [label="X[6] <= 0.059\nentropy = 2.077\nsamples = 25\nvalue = [0, 0, 0, 4, 7, 9, 4, 1, 0, 0, 0, 0, 0, 0\n0, 0, 0, 0, 0, 0, 0, 0, 0, 0, 0, 0, 0]"] ;
389 -> 390 ;
391 [label="X[4] <= 0.209\nentropy = 1.406\nsamples = 8\nvalue = [0, 0, 0, 0, 3, 1, 4, 0, 0, 0, 0, 0, 0, 0\n0, 0, 0, 0, 0, 0, 0, 0, 0, 0, 0, 0, 0]"] ;
390 -> 391 ;
392 [label="entropy = 0.0\nsamples = 1\nvalue = [0, 0, 0, 0, 0, 1, 0, 0, 0, 0, 0, 0, 0, 0\n0, 0, 0, 0, 0, 0, 0, 0, 0, 0, 0, 0, 0]"] ;
391 -> 392 ;
393 [label="X[5] <= 0.13\nentropy = 0.985\nsamples = 7\nvalue = [0, 0, 0, 0, 3, 0, 4, 0, 0, 0, 0, 0, 0, 0\n0, 0, 0, 0, 0, 0, 0, 0, 0, 0, 0, 0, 0]"] ;
391 -> 393 ;
394 [label="X[1] <= 0.392\nentropy = 0.971\nsamples = 5\nvalue = [0, 0, 0, 0, 3, 0, 2, 0, 0, 0, 0, 0, 0, 0\n0, 0, 0, 0, 0, 0, 0, 0, 0, 0, 0, 0, 0]"] ;
393 -> 394 ;
395 [label="entropy = 0.0\nsamples = 2\nvalue = [0, 0, 0, 0, 0, 0, 2, 0, 0, 0, 0, 0, 0, 0\n0, 0, 0, 0, 0, 0, 0, 0, 0, 0, 0, 0, 0]"] ;
394 -> 395 ;
396 [label="entropy = 0.0\nsamples = 3\nvalue = [0, 0, 0, 0, 3, 0, 0, 0, 0, 0, 0, 0, 0, 0\n0, 0, 0, 0, 0, 0, 0, 0, 0, 0, 0, 0, 0]"] ;
394 -> 396 ;
397 [label="entropy = 0.0\nsamples = 2\nvalue = [0, 0, 0, 0, 0, 0, 2, 0, 0, 0, 0, 0, 0, 0\n0, 0, 0, 0, 0, 0, 0, 0, 0, 0, 0, 0, 0]"] ;
393 -> 397 ;
398 [label="X[4] <= 0.285\nentropy = 1.735\nsamples = 17\nvalue = [0, 0, 0, 4, 4, 8, 0, 1, 0, 0, 0, 0, 0, 0\n0, 0, 0, 0, 0, 0, 0, 0, 0, 0, 0, 0, 0]"] ;
390 -> 398 ;
399 [label="X[2] <= 0.275\nentropy = 0.986\nsamples = 9\nvalue = [0, 0, 0, 1, 0, 7, 0, 1, 0, 0, 0, 0, 0, 0\n0, 0, 0, 0, 0, 0, 0, 0, 0, 0, 0, 0, 0]"] ;
398 -> 399 ;
400 [label="entropy = 0.0\nsamples = 1\nvalue = [0, 0, 0, 0, 0, 0, 0, 1, 0, 0, 0, 0, 0, 0\n0, 0, 0, 0, 0, 0, 0, 0, 0, 0, 0, 0, 0]"] ;
399 -> 400 ;
401 [label="X[7] <= 0.077\nentropy = 0.544\nsamples = 8\nvalue = [0, 0, 0, 1, 0, 7, 0, 0, 0, 0, 0, 0, 0, 0\n0, 0, 0, 0, 0, 0, 0, 0, 0, 0, 0, 0, 0]"] ;
399 -> 401 ;
402 [label="entropy = 0.0\nsamples = 1\nvalue = [0, 0, 0, 1, 0, 0, 0, 0, 0, 0, 0, 0, 0, 0\n0, 0, 0, 0, 0, 0, 0, 0, 0, 0, 0, 0, 0]"] ;
401 -> 402 ;
403 [label="entropy = 0.0\nsamples = 7\nvalue = [0, 0, 0, 0, 0, 7, 0, 0, 0, 0, 0, 0, 0, 0\n0, 0, 0, 0, 0, 0, 0, 0, 0, 0, 0, 0, 0]"] ;
401 -> 403 ;
404 [label="X[5] <= 0.138\nentropy = 1.406\nsamples = 8\nvalue = [0, 0, 0, 3, 4, 1, 0, 0, 0, 0, 0, 0, 0, 0\n0, 0, 0, 0, 0, 0, 0, 0, 0, 0, 0, 0, 0]"] ;
398 -> 404 ;
405 [label="X[4] <= 0.311\nentropy = 0.811\nsamples = 4\nvalue = [0, 0, 0, 0, 3, 1, 0, 0, 0, 0, 0, 0, 0, 0\n0, 0, 0, 0, 0, 0, 0, 0, 0, 0, 0, 0, 0]"] ;
404 -> 405 ;
406 [label="entropy = 0.0\nsamples = 3\nvalue = [0, 0, 0, 0, 3, 0, 0, 0, 0, 0, 0, 0, 0, 0\n0, 0, 0, 0, 0, 0, 0, 0, 0, 0, 0, 0, 0]"] ;
405 -> 406 ;
407 [label="entropy = 0.0\nsamples = 1\nvalue = [0, 0, 0, 0, 0, 1, 0, 0, 0, 0, 0, 0, 0, 0\n0, 0, 0, 0, 0, 0, 0, 0, 0, 0, 0, 0, 0]"] ;
405 -> 407 ;
408 [label="X[3] <= 0.102\nentropy = 0.811\nsamples = 4\nvalue = [0, 0, 0, 3, 1, 0, 0, 0, 0, 0, 0, 0, 0, 0\n0, 0, 0, 0, 0, 0, 0, 0, 0, 0, 0, 0, 0]"] ;
404 -> 408 ;
409 [label="entropy = 0.0\nsamples = 3\nvalue = [0, 0, 0, 3, 0, 0, 0, 0, 0, 0, 0, 0, 0, 0\n0, 0, 0, 0, 0, 0, 0, 0, 0, 0, 0, 0, 0]"] ;
408 -> 409 ;
410 [label="entropy = 0.0\nsamples = 1\nvalue = [0, 0, 0, 0, 1, 0, 0, 0, 0, 0, 0, 0, 0, 0\n0, 0, 0, 0, 0, 0, 0, 0, 0, 0, 0, 0, 0]"] ;
408 -> 410 ;
411 [label="X[6] <= 0.064\nentropy = 2.212\nsamples = 58\nvalue = [0, 0, 0, 0, 11, 19, 19, 2, 4, 1, 0, 2, 0, 0\n0, 0, 0, 0, 0, 0, 0, 0, 0, 0, 0, 0, 0]"] ;
389 -> 411 ;
412 [label="X[6] <= 0.063\nentropy = 2.3\nsamples = 29\nvalue = [0, 0, 0, 0, 3, 7, 12, 1, 3, 1, 0, 2, 0, 0\n0, 0, 0, 0, 0, 0, 0, 0, 0, 0, 0, 0, 0]"] ;
411 -> 412 ;
413 [label="X[2] <= 0.312\nentropy = 2.017\nsamples = 24\nvalue = [0, 0, 0, 0, 3, 7, 10, 0, 2, 0, 0, 2, 0, 0\n0, 0, 0, 0, 0, 0, 0, 0, 0, 0, 0, 0, 0]"] ;
412 -> 413 ;
414 [label="X[6] <= 0.057\nentropy = 2.013\nsamples = 15\nvalue = [0, 0, 0, 0, 3, 2, 7, 0, 1, 0, 0, 2, 0, 0\n0, 0, 0, 0, 0, 0, 0, 0, 0, 0, 0, 0, 0]"] ;
413 -> 414 ;
415 [label="X[6] <= 0.049\nentropy = 1.95\nsamples = 7\nvalue = [0, 0, 0, 0, 2, 2, 2, 0, 1, 0, 0, 0, 0, 0\n0, 0, 0, 0, 0, 0, 0, 0, 0, 0, 0, 0, 0]"] ;
414 -> 415 ;
416 [label="X[3] <= 0.102\nentropy = 0.918\nsamples = 3\nvalue = [0, 0, 0, 0, 0, 0, 2, 0, 1, 0, 0, 0, 0, 0\n0, 0, 0, 0, 0, 0, 0, 0, 0, 0, 0, 0, 0]"] ;
415 -> 416 ;
417 [label="entropy = 0.0\nsamples = 1\nvalue = [0, 0, 0, 0, 0, 0, 0, 0, 1, 0, 0, 0, 0, 0\n0, 0, 0, 0, 0, 0, 0, 0, 0, 0, 0, 0, 0]"] ;
416 -> 417 ;
418 [label="entropy = 0.0\nsamples = 2\nvalue = [0, 0, 0, 0, 0, 0, 2, 0, 0, 0, 0, 0, 0, 0\n0, 0, 0, 0, 0, 0, 0, 0, 0, 0, 0, 0, 0]"] ;
416 -> 418 ;
419 [label="X[5] <= 0.12\nentropy = 1.0\nsamples = 4\nvalue = [0, 0, 0, 0, 2, 2, 0, 0, 0, 0, 0, 0, 0, 0\n0, 0, 0, 0, 0, 0, 0, 0, 0, 0, 0, 0, 0]"] ;
415 -> 419 ;
420 [label="entropy = 0.0\nsamples = 2\nvalue = [0, 0, 0, 0, 2, 0, 0, 0, 0, 0, 0, 0, 0, 0\n0, 0, 0, 0, 0, 0, 0, 0, 0, 0, 0, 0, 0]"] ;
419 -> 420 ;
421 [label="entropy = 0.0\nsamples = 2\nvalue = [0, 0, 0, 0, 0, 2, 0, 0, 0, 0, 0, 0, 0, 0\n0, 0, 0, 0, 0, 0, 0, 0, 0, 0, 0, 0, 0]"] ;
419 -> 421 ;
422 [label="X[3] <= 0.098\nentropy = 1.299\nsamples = 8\nvalue = [0, 0, 0, 0, 1, 0, 5, 0, 0, 0, 0, 2, 0, 0\n0, 0, 0, 0, 0, 0, 0, 0, 0, 0, 0, 0, 0]"] ;
414 -> 422 ;
423 [label="entropy = 0.0\nsamples = 3\nvalue = [0, 0, 0, 0, 0, 0, 3, 0, 0, 0, 0, 0, 0, 0\n0, 0, 0, 0, 0, 0, 0, 0, 0, 0, 0, 0, 0]"] ;
422 -> 423 ;
424 [label="X[4] <= 0.295\nentropy = 1.522\nsamples = 5\nvalue = [0, 0, 0, 0, 1, 0, 2, 0, 0, 0, 0, 2, 0, 0\n0, 0, 0, 0, 0, 0, 0, 0, 0, 0, 0, 0, 0]"] ;
422 -> 424 ;
425 [label="X[5] <= 0.11\nentropy = 0.918\nsamples = 3\nvalue = [0, 0, 0, 0, 0, 0, 2, 0, 0, 0, 0, 1, 0, 0\n0, 0, 0, 0, 0, 0, 0, 0, 0, 0, 0, 0, 0]"] ;
424 -> 425 ;
426 [label="entropy = 0.0\nsamples = 1\nvalue = [0, 0, 0, 0, 0, 0, 0, 0, 0, 0, 0, 1, 0, 0\n0, 0, 0, 0, 0, 0, 0, 0, 0, 0, 0, 0, 0]"] ;
425 -> 426 ;
427 [label="entropy = 0.0\nsamples = 2\nvalue = [0, 0, 0, 0, 0, 0, 2, 0, 0, 0, 0, 0, 0, 0\n0, 0, 0, 0, 0, 0, 0, 0, 0, 0, 0, 0, 0]"] ;
425 -> 427 ;
428 [label="X[1] <= 0.403\nentropy = 1.0\nsamples = 2\nvalue = [0, 0, 0, 0, 1, 0, 0, 0, 0, 0, 0, 1, 0, 0\n0, 0, 0, 0, 0, 0, 0, 0, 0, 0, 0, 0, 0]"] ;
424 -> 428 ;
429 [label="entropy = 0.0\nsamples = 1\nvalue = [0, 0, 0, 0, 1, 0, 0, 0, 0, 0, 0, 0, 0, 0\n0, 0, 0, 0, 0, 0, 0, 0, 0, 0, 0, 0, 0]"] ;
428 -> 429 ;
430 [label="entropy = 0.0\nsamples = 1\nvalue = [0, 0, 0, 0, 0, 0, 0, 0, 0, 0, 0, 1, 0, 0\n0, 0, 0, 0, 0, 0, 0, 0, 0, 0, 0, 0, 0]"] ;
428 -> 430 ;
431 [label="X[5] <= 0.144\nentropy = 1.352\nsamples = 9\nvalue = [0, 0, 0, 0, 0, 5, 3, 0, 1, 0, 0, 0, 0, 0\n0, 0, 0, 0, 0, 0, 0, 0, 0, 0, 0, 0, 0]"] ;
413 -> 431 ;
432 [label="X[7] <= 0.093\nentropy = 0.65\nsamples = 6\nvalue = [0, 0, 0, 0, 0, 5, 1, 0, 0, 0, 0, 0, 0, 0\n0, 0, 0, 0, 0, 0, 0, 0, 0, 0, 0, 0, 0]"] ;
431 -> 432 ;
433 [label="entropy = 0.0\nsamples = 1\nvalue = [0, 0, 0, 0, 0, 0, 1, 0, 0, 0, 0, 0, 0, 0\n0, 0, 0, 0, 0, 0, 0, 0, 0, 0, 0, 0, 0]"] ;
432 -> 433 ;
434 [label="entropy = 0.0\nsamples = 5\nvalue = [0, 0, 0, 0, 0, 5, 0, 0, 0, 0, 0, 0, 0, 0\n0, 0, 0, 0, 0, 0, 0, 0, 0, 0, 0, 0, 0]"] ;
432 -> 434 ;
435 [label="X[2] <= 0.322\nentropy = 0.918\nsamples = 3\nvalue = [0, 0, 0, 0, 0, 0, 2, 0, 1, 0, 0, 0, 0, 0\n0, 0, 0, 0, 0, 0, 0, 0, 0, 0, 0, 0, 0]"] ;
431 -> 435 ;
436 [label="entropy = 0.0\nsamples = 2\nvalue = [0, 0, 0, 0, 0, 0, 2, 0, 0, 0, 0, 0, 0, 0\n0, 0, 0, 0, 0, 0, 0, 0, 0, 0, 0, 0, 0]"] ;
435 -> 436 ;
437 [label="entropy = 0.0\nsamples = 1\nvalue = [0, 0, 0, 0, 0, 0, 0, 0, 1, 0, 0, 0, 0, 0\n0, 0, 0, 0, 0, 0, 0, 0, 0, 0, 0, 0, 0]"] ;
435 -> 437 ;
438 [label="X[1] <= 0.41\nentropy = 1.922\nsamples = 5\nvalue = [0, 0, 0, 0, 0, 0, 2, 1, 1, 1, 0, 0, 0, 0\n0, 0, 0, 0, 0, 0, 0, 0, 0, 0, 0, 0, 0]"] ;
412 -> 438 ;
439 [label="X[5] <= 0.115\nentropy = 1.0\nsamples = 2\nvalue = [0, 0, 0, 0, 0, 0, 0, 0, 1, 1, 0, 0, 0, 0\n0, 0, 0, 0, 0, 0, 0, 0, 0, 0, 0, 0, 0]"] ;
438 -> 439 ;
440 [label="entropy = 0.0\nsamples = 1\nvalue = [0, 0, 0, 0, 0, 0, 0, 0, 1, 0, 0, 0, 0, 0\n0, 0, 0, 0, 0, 0, 0, 0, 0, 0, 0, 0, 0]"] ;
439 -> 440 ;
441 [label="entropy = 0.0\nsamples = 1\nvalue = [0, 0, 0, 0, 0, 0, 0, 0, 0, 1, 0, 0, 0, 0\n0, 0, 0, 0, 0, 0, 0, 0, 0, 0, 0, 0, 0]"] ;
439 -> 441 ;
442 [label="X[3] <= 0.087\nentropy = 0.918\nsamples = 3\nvalue = [0, 0, 0, 0, 0, 0, 2, 1, 0, 0, 0, 0, 0, 0\n0, 0, 0, 0, 0, 0, 0, 0, 0, 0, 0, 0, 0]"] ;
438 -> 442 ;
443 [label="entropy = 0.0\nsamples = 1\nvalue = [0, 0, 0, 0, 0, 0, 0, 1, 0, 0, 0, 0, 0, 0\n0, 0, 0, 0, 0, 0, 0, 0, 0, 0, 0, 0, 0]"] ;
442 -> 443 ;
444 [label="entropy = 0.0\nsamples = 2\nvalue = [0, 0, 0, 0, 0, 0, 2, 0, 0, 0, 0, 0, 0, 0\n0, 0, 0, 0, 0, 0, 0, 0, 0, 0, 0, 0, 0]"] ;
442 -> 444 ;
445 [label="X[2] <= 0.333\nentropy = 1.869\nsamples = 29\nvalue = [0, 0, 0, 0, 8, 12, 7, 1, 1, 0, 0, 0, 0, 0\n0, 0, 0, 0, 0, 0, 0, 0, 0, 0, 0, 0, 0]"] ;
411 -> 445 ;
446 [label="X[5] <= 0.097\nentropy = 1.757\nsamples = 25\nvalue = [0, 0, 0, 0, 8, 9, 7, 1, 0, 0, 0, 0, 0, 0\n0, 0, 0, 0, 0, 0, 0, 0, 0, 0, 0, 0, 0]"] ;
445 -> 446 ;
447 [label="entropy = 0.0\nsamples = 1\nvalue = [0, 0, 0, 0, 0, 0, 0, 1, 0, 0, 0, 0, 0, 0\n0, 0, 0, 0, 0, 0, 0, 0, 0, 0, 0, 0, 0]"] ;
446 -> 447 ;
448 [label="X[5] <= 0.131\nentropy = 1.577\nsamples = 24\nvalue = [0, 0, 0, 0, 8, 9, 7, 0, 0, 0, 0, 0, 0, 0\n0, 0, 0, 0, 0, 0, 0, 0, 0, 0, 0, 0, 0]"] ;
446 -> 448 ;
449 [label="X[6] <= 0.073\nentropy = 1.384\nsamples = 12\nvalue = [0, 0, 0, 0, 2, 7, 3, 0, 0, 0, 0, 0, 0, 0\n0, 0, 0, 0, 0, 0, 0, 0, 0, 0, 0, 0, 0]"] ;
448 -> 449 ;
450 [label="X[6] <= 0.069\nentropy = 0.863\nsamples = 7\nvalue = [0, 0, 0, 0, 2, 5, 0, 0, 0, 0, 0, 0, 0, 0\n0, 0, 0, 0, 0, 0, 0, 0, 0, 0, 0, 0, 0]"] ;
449 -> 450 ;
451 [label="X[5] <= 0.102\nentropy = 0.918\nsamples = 3\nvalue = [0, 0, 0, 0, 2, 1, 0, 0, 0, 0, 0, 0, 0, 0\n0, 0, 0, 0, 0, 0, 0, 0, 0, 0, 0, 0, 0]"] ;
450 -> 451 ;
452 [label="entropy = 0.0\nsamples = 1\nvalue = [0, 0, 0, 0, 0, 1, 0, 0, 0, 0, 0, 0, 0, 0\n0, 0, 0, 0, 0, 0, 0, 0, 0, 0, 0, 0, 0]"] ;
451 -> 452 ;
453 [label="entropy = 0.0\nsamples = 2\nvalue = [0, 0, 0, 0, 2, 0, 0, 0, 0, 0, 0, 0, 0, 0\n0, 0, 0, 0, 0, 0, 0, 0, 0, 0, 0, 0, 0]"] ;
451 -> 453 ;
454 [label="entropy = 0.0\nsamples = 4\nvalue = [0, 0, 0, 0, 0, 4, 0, 0, 0, 0, 0, 0, 0, 0\n0, 0, 0, 0, 0, 0, 0, 0, 0, 0, 0, 0, 0]"] ;
450 -> 454 ;
455 [label="X[3] <= 0.11\nentropy = 0.971\nsamples = 5\nvalue = [0, 0, 0, 0, 0, 2, 3, 0, 0, 0, 0, 0, 0, 0\n0, 0, 0, 0, 0, 0, 0, 0, 0, 0, 0, 0, 0]"] ;
449 -> 455 ;
456 [label="entropy = 0.0\nsamples = 2\nvalue = [0, 0, 0, 0, 0, 0, 2, 0, 0, 0, 0, 0, 0, 0\n0, 0, 0, 0, 0, 0, 0, 0, 0, 0, 0, 0, 0]"] ;
455 -> 456 ;
457 [label="X[7] <= 0.099\nentropy = 0.918\nsamples = 3\nvalue = [0, 0, 0, 0, 0, 2, 1, 0, 0, 0, 0, 0, 0, 0\n0, 0, 0, 0, 0, 0, 0, 0, 0, 0, 0, 0, 0]"] ;
455 -> 457 ;
458 [label="entropy = 0.0\nsamples = 2\nvalue = [0, 0, 0, 0, 0, 2, 0, 0, 0, 0, 0, 0, 0, 0\n0, 0, 0, 0, 0, 0, 0, 0, 0, 0, 0, 0, 0]"] ;
457 -> 458 ;
459 [label="entropy = 0.0\nsamples = 1\nvalue = [0, 0, 0, 0, 0, 0, 1, 0, 0, 0, 0, 0, 0, 0\n0, 0, 0, 0, 0, 0, 0, 0, 0, 0, 0, 0, 0]"] ;
457 -> 459 ;
460 [label="X[5] <= 0.139\nentropy = 1.459\nsamples = 12\nvalue = [0, 0, 0, 0, 6, 2, 4, 0, 0, 0, 0, 0, 0, 0\n0, 0, 0, 0, 0, 0, 0, 0, 0, 0, 0, 0, 0]"] ;
448 -> 460 ;
461 [label="X[3] <= 0.102\nentropy = 0.954\nsamples = 8\nvalue = [0, 0, 0, 0, 5, 0, 3, 0, 0, 0, 0, 0, 0, 0\n0, 0, 0, 0, 0, 0, 0, 0, 0, 0, 0, 0, 0]"] ;
460 -> 461 ;
462 [label="entropy = 0.0\nsamples = 3\nvalue = [0, 0, 0, 0, 3, 0, 0, 0, 0, 0, 0, 0, 0, 0\n0, 0, 0, 0, 0, 0, 0, 0, 0, 0, 0, 0, 0]"] ;
461 -> 462 ;
463 [label="X[3] <= 0.113\nentropy = 0.971\nsamples = 5\nvalue = [0, 0, 0, 0, 2, 0, 3, 0, 0, 0, 0, 0, 0, 0\n0, 0, 0, 0, 0, 0, 0, 0, 0, 0, 0, 0, 0]"] ;
461 -> 463 ;
464 [label="entropy = 0.0\nsamples = 3\nvalue = [0, 0, 0, 0, 0, 0, 3, 0, 0, 0, 0, 0, 0, 0\n0, 0, 0, 0, 0, 0, 0, 0, 0, 0, 0, 0, 0]"] ;
463 -> 464 ;
465 [label="entropy = 0.0\nsamples = 2\nvalue = [0, 0, 0, 0, 2, 0, 0, 0, 0, 0, 0, 0, 0, 0\n0, 0, 0, 0, 0, 0, 0, 0, 0, 0, 0, 0, 0]"] ;
463 -> 465 ;
466 [label="X[6] <= 0.074\nentropy = 1.5\nsamples = 4\nvalue = [0, 0, 0, 0, 1, 2, 1, 0, 0, 0, 0, 0, 0, 0\n0, 0, 0, 0, 0, 0, 0, 0, 0, 0, 0, 0, 0]"] ;
460 -> 466 ;
467 [label="X[7] <= 0.089\nentropy = 1.0\nsamples = 2\nvalue = [0, 0, 0, 0, 1, 0, 1, 0, 0, 0, 0, 0, 0, 0\n0, 0, 0, 0, 0, 0, 0, 0, 0, 0, 0, 0, 0]"] ;
466 -> 467 ;
468 [label="entropy = 0.0\nsamples = 1\nvalue = [0, 0, 0, 0, 0, 0, 1, 0, 0, 0, 0, 0, 0, 0\n0, 0, 0, 0, 0, 0, 0, 0, 0, 0, 0, 0, 0]"] ;
467 -> 468 ;
469 [label="entropy = 0.0\nsamples = 1\nvalue = [0, 0, 0, 0, 1, 0, 0, 0, 0, 0, 0, 0, 0, 0\n0, 0, 0, 0, 0, 0, 0, 0, 0, 0, 0, 0, 0]"] ;
467 -> 469 ;
470 [label="entropy = 0.0\nsamples = 2\nvalue = [0, 0, 0, 0, 0, 2, 0, 0, 0, 0, 0, 0, 0, 0\n0, 0, 0, 0, 0, 0, 0, 0, 0, 0, 0, 0, 0]"] ;
466 -> 470 ;
471 [label="X[1] <= 0.43\nentropy = 0.811\nsamples = 4\nvalue = [0, 0, 0, 0, 0, 3, 0, 0, 1, 0, 0, 0, 0, 0\n0, 0, 0, 0, 0, 0, 0, 0, 0, 0, 0, 0, 0]"] ;
445 -> 471 ;
472 [label="entropy = 0.0\nsamples = 1\nvalue = [0, 0, 0, 0, 0, 0, 0, 0, 1, 0, 0, 0, 0, 0\n0, 0, 0, 0, 0, 0, 0, 0, 0, 0, 0, 0, 0]"] ;
471 -> 472 ;
473 [label="entropy = 0.0\nsamples = 3\nvalue = [0, 0, 0, 0, 0, 3, 0, 0, 0, 0, 0, 0, 0, 0\n0, 0, 0, 0, 0, 0, 0, 0, 0, 0, 0, 0, 0]"] ;
471 -> 473 ;
474 [label="X[1] <= 0.422\nentropy = 2.47\nsamples = 13\nvalue = [0, 0, 0, 0, 0, 2, 2, 4, 2, 2, 1, 0, 0, 0\n0, 0, 0, 0, 0, 0, 0, 0, 0, 0, 0, 0, 0]"] ;
322 -> 474 ;
475 [label="X[5] <= 0.145\nentropy = 1.459\nsamples = 6\nvalue = [0, 0, 0, 0, 0, 0, 0, 3, 2, 0, 1, 0, 0, 0\n0, 0, 0, 0, 0, 0, 0, 0, 0, 0, 0, 0, 0]"] ;
474 -> 475 ;
476 [label="X[5] <= 0.132\nentropy = 1.0\nsamples = 2\nvalue = [0, 0, 0, 0, 0, 0, 0, 0, 1, 0, 1, 0, 0, 0\n0, 0, 0, 0, 0, 0, 0, 0, 0, 0, 0, 0, 0]"] ;
475 -> 476 ;
477 [label="entropy = 0.0\nsamples = 1\nvalue = [0, 0, 0, 0, 0, 0, 0, 0, 1, 0, 0, 0, 0, 0\n0, 0, 0, 0, 0, 0, 0, 0, 0, 0, 0, 0, 0]"] ;
476 -> 477 ;
478 [label="entropy = 0.0\nsamples = 1\nvalue = [0, 0, 0, 0, 0, 0, 0, 0, 0, 0, 1, 0, 0, 0\n0, 0, 0, 0, 0, 0, 0, 0, 0, 0, 0, 0, 0]"] ;
476 -> 478 ;
479 [label="X[1] <= 0.403\nentropy = 0.811\nsamples = 4\nvalue = [0, 0, 0, 0, 0, 0, 0, 3, 1, 0, 0, 0, 0, 0\n0, 0, 0, 0, 0, 0, 0, 0, 0, 0, 0, 0, 0]"] ;
475 -> 479 ;
480 [label="entropy = 0.0\nsamples = 1\nvalue = [0, 0, 0, 0, 0, 0, 0, 0, 1, 0, 0, 0, 0, 0\n0, 0, 0, 0, 0, 0, 0, 0, 0, 0, 0, 0, 0]"] ;
479 -> 480 ;
481 [label="entropy = 0.0\nsamples = 3\nvalue = [0, 0, 0, 0, 0, 0, 0, 3, 0, 0, 0, 0, 0, 0\n0, 0, 0, 0, 0, 0, 0, 0, 0, 0, 0, 0, 0]"] ;
479 -> 481 ;
482 [label="X[5] <= 0.145\nentropy = 1.95\nsamples = 7\nvalue = [0, 0, 0, 0, 0, 2, 2, 1, 0, 2, 0, 0, 0, 0\n0, 0, 0, 0, 0, 0, 0, 0, 0, 0, 0, 0, 0]"] ;
474 -> 482 ;
483 [label="X[2] <= 0.345\nentropy = 0.918\nsamples = 3\nvalue = [0, 0, 0, 0, 0, 0, 0, 1, 0, 2, 0, 0, 0, 0\n0, 0, 0, 0, 0, 0, 0, 0, 0, 0, 0, 0, 0]"] ;
482 -> 483 ;
484 [label="entropy = 0.0\nsamples = 2\nvalue = [0, 0, 0, 0, 0, 0, 0, 0, 0, 2, 0, 0, 0, 0\n0, 0, 0, 0, 0, 0, 0, 0, 0, 0, 0, 0, 0]"] ;
483 -> 484 ;
485 [label="entropy = 0.0\nsamples = 1\nvalue = [0, 0, 0, 0, 0, 0, 0, 1, 0, 0, 0, 0, 0, 0\n0, 0, 0, 0, 0, 0, 0, 0, 0, 0, 0, 0, 0]"] ;
483 -> 485 ;
486 [label="X[1] <= 0.433\nentropy = 1.0\nsamples = 4\nvalue = [0, 0, 0, 0, 0, 2, 2, 0, 0, 0, 0, 0, 0, 0\n0, 0, 0, 0, 0, 0, 0, 0, 0, 0, 0, 0, 0]"] ;
482 -> 486 ;
487 [label="entropy = 0.0\nsamples = 2\nvalue = [0, 0, 0, 0, 0, 0, 2, 0, 0, 0, 0, 0, 0, 0\n0, 0, 0, 0, 0, 0, 0, 0, 0, 0, 0, 0, 0]"] ;
486 -> 487 ;
488 [label="entropy = 0.0\nsamples = 2\nvalue = [0, 0, 0, 0, 0, 2, 0, 0, 0, 0, 0, 0, 0, 0\n0, 0, 0, 0, 0, 0, 0, 0, 0, 0, 0, 0, 0]"] ;
486 -> 488 ;
489 [label="X[7] <= 0.103\nentropy = 2.086\nsamples = 115\nvalue = [0, 0, 0, 2, 36, 46, 19, 7, 0, 3, 1, 0, 1, 0\n0, 0, 0, 0, 0, 0, 0, 0, 0, 0, 0, 0, 0]"] ;
321 -> 489 ;
490 [label="X[6] <= 0.103\nentropy = 1.719\nsamples = 46\nvalue = [0, 0, 0, 2, 19, 19, 5, 0, 0, 0, 1, 0, 0, 0\n0, 0, 0, 0, 0, 0, 0, 0, 0, 0, 0, 0, 0]"] ;
489 -> 490 ;
491 [label="X[7] <= 0.098\nentropy = 1.563\nsamples = 44\nvalue = [0, 0, 0, 2, 19, 19, 4, 0, 0, 0, 0, 0, 0, 0\n0, 0, 0, 0, 0, 0, 0, 0, 0, 0, 0, 0, 0]"] ;
490 -> 491 ;
492 [label="X[6] <= 0.067\nentropy = 1.336\nsamples = 32\nvalue = [0, 0, 0, 0, 17, 12, 3, 0, 0, 0, 0, 0, 0, 0\n0, 0, 0, 0, 0, 0, 0, 0, 0, 0, 0, 0, 0]"] ;
491 -> 492 ;
493 [label="X[1] <= 0.395\nentropy = 0.866\nsamples = 11\nvalue = [0, 0, 0, 0, 9, 1, 1, 0, 0, 0, 0, 0, 0, 0\n0, 0, 0, 0, 0, 0, 0, 0, 0, 0, 0, 0, 0]"] ;
492 -> 493 ;
494 [label="X[3] <= 0.093\nentropy = 1.0\nsamples = 2\nvalue = [0, 0, 0, 0, 1, 1, 0, 0, 0, 0, 0, 0, 0, 0\n0, 0, 0, 0, 0, 0, 0, 0, 0, 0, 0, 0, 0]"] ;
493 -> 494 ;
495 [label="entropy = 0.0\nsamples = 1\nvalue = [0, 0, 0, 0, 1, 0, 0, 0, 0, 0, 0, 0, 0, 0\n0, 0, 0, 0, 0, 0, 0, 0, 0, 0, 0, 0, 0]"] ;
494 -> 495 ;
496 [label="entropy = 0.0\nsamples = 1\nvalue = [0, 0, 0, 0, 0, 1, 0, 0, 0, 0, 0, 0, 0, 0\n0, 0, 0, 0, 0, 0, 0, 0, 0, 0, 0, 0, 0]"] ;
494 -> 496 ;
497 [label="X[6] <= 0.063\nentropy = 0.503\nsamples = 9\nvalue = [0, 0, 0, 0, 8, 0, 1, 0, 0, 0, 0, 0, 0, 0\n0, 0, 0, 0, 0, 0, 0, 0, 0, 0, 0, 0, 0]"] ;
493 -> 497 ;
498 [label="entropy = 0.0\nsamples = 6\nvalue = [0, 0, 0, 0, 6, 0, 0, 0, 0, 0, 0, 0, 0, 0\n0, 0, 0, 0, 0, 0, 0, 0, 0, 0, 0, 0, 0]"] ;
497 -> 498 ;
499 [label="X[6] <= 0.065\nentropy = 0.918\nsamples = 3\nvalue = [0, 0, 0, 0, 2, 0, 1, 0, 0, 0, 0, 0, 0, 0\n0, 0, 0, 0, 0, 0, 0, 0, 0, 0, 0, 0, 0]"] ;
497 -> 499 ;
500 [label="entropy = 0.0\nsamples = 1\nvalue = [0, 0, 0, 0, 0, 0, 1, 0, 0, 0, 0, 0, 0, 0\n0, 0, 0, 0, 0, 0, 0, 0, 0, 0, 0, 0, 0]"] ;
499 -> 500 ;
501 [label="entropy = 0.0\nsamples = 2\nvalue = [0, 0, 0, 0, 2, 0, 0, 0, 0, 0, 0, 0, 0, 0\n0, 0, 0, 0, 0, 0, 0, 0, 0, 0, 0, 0, 0]"] ;
499 -> 501 ;
502 [label="X[2] <= 0.312\nentropy = 1.342\nsamples = 21\nvalue = [0, 0, 0, 0, 8, 11, 2, 0, 0, 0, 0, 0, 0, 0\n0, 0, 0, 0, 0, 0, 0, 0, 0, 0, 0, 0, 0]"] ;
492 -> 502 ;
503 [label="entropy = 0.0\nsamples = 6\nvalue = [0, 0, 0, 0, 0, 6, 0, 0, 0, 0, 0, 0, 0, 0\n0, 0, 0, 0, 0, 0, 0, 0, 0, 0, 0, 0, 0]"] ;
502 -> 503 ;
504 [label="X[1] <= 0.428\nentropy = 1.4\nsamples = 15\nvalue = [0, 0, 0, 0, 8, 5, 2, 0, 0, 0, 0, 0, 0, 0\n0, 0, 0, 0, 0, 0, 0, 0, 0, 0, 0, 0, 0]"] ;
502 -> 504 ;
505 [label="X[7] <= 0.094\nentropy = 0.722\nsamples = 5\nvalue = [0, 0, 0, 0, 4, 0, 1, 0, 0, 0, 0, 0, 0, 0\n0, 0, 0, 0, 0, 0, 0, 0, 0, 0, 0, 0, 0]"] ;
504 -> 505 ;
506 [label="entropy = 0.0\nsamples = 4\nvalue = [0, 0, 0, 0, 4, 0, 0, 0, 0, 0, 0, 0, 0, 0\n0, 0, 0, 0, 0, 0, 0, 0, 0, 0, 0, 0, 0]"] ;
505 -> 506 ;
507 [label="entropy = 0.0\nsamples = 1\nvalue = [0, 0, 0, 0, 0, 0, 1, 0, 0, 0, 0, 0, 0, 0\n0, 0, 0, 0, 0, 0, 0, 0, 0, 0, 0, 0, 0]"] ;
505 -> 507 ;
508 [label="X[7] <= 0.095\nentropy = 1.361\nsamples = 10\nvalue = [0, 0, 0, 0, 4, 5, 1, 0, 0, 0, 0, 0, 0, 0\n0, 0, 0, 0, 0, 0, 0, 0, 0, 0, 0, 0, 0]"] ;
504 -> 508 ;
509 [label="X[6] <= 0.077\nentropy = 0.65\nsamples = 6\nvalue = [0, 0, 0, 0, 1, 5, 0, 0, 0, 0, 0, 0, 0, 0\n0, 0, 0, 0, 0, 0, 0, 0, 0, 0, 0, 0, 0]"] ;
508 -> 509 ;
510 [label="entropy = 0.0\nsamples = 1\nvalue = [0, 0, 0, 0, 1, 0, 0, 0, 0, 0, 0, 0, 0, 0\n0, 0, 0, 0, 0, 0, 0, 0, 0, 0, 0, 0, 0]"] ;
509 -> 510 ;
511 [label="entropy = 0.0\nsamples = 5\nvalue = [0, 0, 0, 0, 0, 5, 0, 0, 0, 0, 0, 0, 0, 0\n0, 0, 0, 0, 0, 0, 0, 0, 0, 0, 0, 0, 0]"] ;
509 -> 511 ;
512 [label="X[2] <= 0.335\nentropy = 0.811\nsamples = 4\nvalue = [0, 0, 0, 0, 3, 0, 1, 0, 0, 0, 0, 0, 0, 0\n0, 0, 0, 0, 0, 0, 0, 0, 0, 0, 0, 0, 0]"] ;
508 -> 512 ;
513 [label="entropy = 0.0\nsamples = 3\nvalue = [0, 0, 0, 0, 3, 0, 0, 0, 0, 0, 0, 0, 0, 0\n0, 0, 0, 0, 0, 0, 0, 0, 0, 0, 0, 0, 0]"] ;
512 -> 513 ;
514 [label="entropy = 0.0\nsamples = 1\nvalue = [0, 0, 0, 0, 0, 0, 1, 0, 0, 0, 0, 0, 0, 0\n0, 0, 0, 0, 0, 0, 0, 0, 0, 0, 0, 0, 0]"] ;
512 -> 514 ;
515 [label="X[5] <= 0.171\nentropy = 1.614\nsamples = 12\nvalue = [0, 0, 0, 2, 2, 7, 1, 0, 0, 0, 0, 0, 0, 0\n0, 0, 0, 0, 0, 0, 0, 0, 0, 0, 0, 0, 0]"] ;
491 -> 515 ;
516 [label="X[2] <= 0.315\nentropy = 1.918\nsamples = 6\nvalue = [0, 0, 0, 2, 2, 1, 1, 0, 0, 0, 0, 0, 0, 0\n0, 0, 0, 0, 0, 0, 0, 0, 0, 0, 0, 0, 0]"] ;
515 -> 516 ;
517 [label="X[6] <= 0.073\nentropy = 1.0\nsamples = 2\nvalue = [0, 0, 0, 0, 0, 1, 1, 0, 0, 0, 0, 0, 0, 0\n0, 0, 0, 0, 0, 0, 0, 0, 0, 0, 0, 0, 0]"] ;
516 -> 517 ;
518 [label="entropy = 0.0\nsamples = 1\nvalue = [0, 0, 0, 0, 0, 0, 1, 0, 0, 0, 0, 0, 0, 0\n0, 0, 0, 0, 0, 0, 0, 0, 0, 0, 0, 0, 0]"] ;
517 -> 518 ;
519 [label="entropy = 0.0\nsamples = 1\nvalue = [0, 0, 0, 0, 0, 1, 0, 0, 0, 0, 0, 0, 0, 0\n0, 0, 0, 0, 0, 0, 0, 0, 0, 0, 0, 0, 0]"] ;
517 -> 519 ;
520 [label="X[6] <= 0.084\nentropy = 1.0\nsamples = 4\nvalue = [0, 0, 0, 2, 2, 0, 0, 0, 0, 0, 0, 0, 0, 0\n0, 0, 0, 0, 0, 0, 0, 0, 0, 0, 0, 0, 0]"] ;
516 -> 520 ;
521 [label="entropy = 0.0\nsamples = 1\nvalue = [0, 0, 0, 1, 0, 0, 0, 0, 0, 0, 0, 0, 0, 0\n0, 0, 0, 0, 0, 0, 0, 0, 0, 0, 0, 0, 0]"] ;
520 -> 521 ;
522 [label="X[1] <= 0.422\nentropy = 0.918\nsamples = 3\nvalue = [0, 0, 0, 1, 2, 0, 0, 0, 0, 0, 0, 0, 0, 0\n0, 0, 0, 0, 0, 0, 0, 0, 0, 0, 0, 0, 0]"] ;
520 -> 522 ;
523 [label="entropy = 0.0\nsamples = 1\nvalue = [0, 0, 0, 1, 0, 0, 0, 0, 0, 0, 0, 0, 0, 0\n0, 0, 0, 0, 0, 0, 0, 0, 0, 0, 0, 0, 0]"] ;
522 -> 523 ;
524 [label="entropy = 0.0\nsamples = 2\nvalue = [0, 0, 0, 0, 2, 0, 0, 0, 0, 0, 0, 0, 0, 0\n0, 0, 0, 0, 0, 0, 0, 0, 0, 0, 0, 0, 0]"] ;
522 -> 524 ;
525 [label="entropy = 0.0\nsamples = 6\nvalue = [0, 0, 0, 0, 0, 6, 0, 0, 0, 0, 0, 0, 0, 0\n0, 0, 0, 0, 0, 0, 0, 0, 0, 0, 0, 0, 0]"] ;
515 -> 525 ;
526 [label="X[3] <= 0.117\nentropy = 1.0\nsamples = 2\nvalue = [0, 0, 0, 0, 0, 0, 1, 0, 0, 0, 1, 0, 0, 0\n0, 0, 0, 0, 0, 0, 0, 0, 0, 0, 0, 0, 0]"] ;
490 -> 526 ;
527 [label="entropy = 0.0\nsamples = 1\nvalue = [0, 0, 0, 0, 0, 0, 1, 0, 0, 0, 0, 0, 0, 0\n0, 0, 0, 0, 0, 0, 0, 0, 0, 0, 0, 0, 0]"] ;
526 -> 527 ;
528 [label="entropy = 0.0\nsamples = 1\nvalue = [0, 0, 0, 0, 0, 0, 0, 0, 0, 0, 1, 0, 0, 0\n0, 0, 0, 0, 0, 0, 0, 0, 0, 0, 0, 0, 0]"] ;
526 -> 528 ;
529 [label="X[1] <= 0.433\nentropy = 2.115\nsamples = 69\nvalue = [0, 0, 0, 0, 17, 27, 14, 7, 0, 3, 0, 0, 1, 0\n0, 0, 0, 0, 0, 0, 0, 0, 0, 0, 0, 0, 0]"] ;
489 -> 529 ;
530 [label="X[3] <= 0.107\nentropy = 1.857\nsamples = 22\nvalue = [0, 0, 0, 0, 5, 7, 8, 0, 0, 2, 0, 0, 0, 0\n0, 0, 0, 0, 0, 0, 0, 0, 0, 0, 0, 0, 0]"] ;
529 -> 530 ;
531 [label="X[6] <= 0.065\nentropy = 1.922\nsamples = 13\nvalue = [0, 0, 0, 0, 5, 3, 3, 0, 0, 2, 0, 0, 0, 0\n0, 0, 0, 0, 0, 0, 0, 0, 0, 0, 0, 0, 0]"] ;
530 -> 531 ;
532 [label="entropy = 0.0\nsamples = 2\nvalue = [0, 0, 0, 0, 0, 0, 0, 0, 0, 2, 0, 0, 0, 0\n0, 0, 0, 0, 0, 0, 0, 0, 0, 0, 0, 0, 0]"] ;
531 -> 532 ;
533 [label="X[7] <= 0.105\nentropy = 1.539\nsamples = 11\nvalue = [0, 0, 0, 0, 5, 3, 3, 0, 0, 0, 0, 0, 0, 0\n0, 0, 0, 0, 0, 0, 0, 0, 0, 0, 0, 0, 0]"] ;
531 -> 533 ;
534 [label="entropy = 0.0\nsamples = 2\nvalue = [0, 0, 0, 0, 0, 0, 2, 0, 0, 0, 0, 0, 0, 0\n0, 0, 0, 0, 0, 0, 0, 0, 0, 0, 0, 0, 0]"] ;
533 -> 534 ;
535 [label="X[3] <= 0.05\nentropy = 1.352\nsamples = 9\nvalue = [0, 0, 0, 0, 5, 3, 1, 0, 0, 0, 0, 0, 0, 0\n0, 0, 0, 0, 0, 0, 0, 0, 0, 0, 0, 0, 0]"] ;
533 -> 535 ;
536 [label="entropy = 0.0\nsamples = 1\nvalue = [0, 0, 0, 0, 0, 0, 1, 0, 0, 0, 0, 0, 0, 0\n0, 0, 0, 0, 0, 0, 0, 0, 0, 0, 0, 0, 0]"] ;
535 -> 536 ;
537 [label="X[4] <= 0.365\nentropy = 0.954\nsamples = 8\nvalue = [0, 0, 0, 0, 5, 3, 0, 0, 0, 0, 0, 0, 0, 0\n0, 0, 0, 0, 0, 0, 0, 0, 0, 0, 0, 0, 0]"] ;
535 -> 537 ;
538 [label="entropy = 0.0\nsamples = 2\nvalue = [0, 0, 0, 0, 0, 2, 0, 0, 0, 0, 0, 0, 0, 0\n0, 0, 0, 0, 0, 0, 0, 0, 0, 0, 0, 0, 0]"] ;
537 -> 538 ;
539 [label="X[4] <= 0.454\nentropy = 0.65\nsamples = 6\nvalue = [0, 0, 0, 0, 5, 1, 0, 0, 0, 0, 0, 0, 0, 0\n0, 0, 0, 0, 0, 0, 0, 0, 0, 0, 0, 0, 0]"] ;
537 -> 539 ;
540 [label="entropy = 0.0\nsamples = 5\nvalue = [0, 0, 0, 0, 5, 0, 0, 0, 0, 0, 0, 0, 0, 0\n0, 0, 0, 0, 0, 0, 0, 0, 0, 0, 0, 0, 0]"] ;
539 -> 540 ;
541 [label="entropy = 0.0\nsamples = 1\nvalue = [0, 0, 0, 0, 0, 1, 0, 0, 0, 0, 0, 0, 0, 0\n0, 0, 0, 0, 0, 0, 0, 0, 0, 0, 0, 0, 0]"] ;
539 -> 541 ;
542 [label="X[4] <= 0.379\nentropy = 0.991\nsamples = 9\nvalue = [0, 0, 0, 0, 0, 4, 5, 0, 0, 0, 0, 0, 0, 0\n0, 0, 0, 0, 0, 0, 0, 0, 0, 0, 0, 0, 0]"] ;
530 -> 542 ;
543 [label="X[4] <= 0.368\nentropy = 0.918\nsamples = 6\nvalue = [0, 0, 0, 0, 0, 4, 2, 0, 0, 0, 0, 0, 0, 0\n0, 0, 0, 0, 0, 0, 0, 0, 0, 0, 0, 0, 0]"] ;
542 -> 543 ;
544 [label="X[6] <= 0.064\nentropy = 0.918\nsamples = 3\nvalue = [0, 0, 0, 0, 0, 1, 2, 0, 0, 0, 0, 0, 0, 0\n0, 0, 0, 0, 0, 0, 0, 0, 0, 0, 0, 0, 0]"] ;
543 -> 544 ;
545 [label="entropy = 0.0\nsamples = 1\nvalue = [0, 0, 0, 0, 0, 1, 0, 0, 0, 0, 0, 0, 0, 0\n0, 0, 0, 0, 0, 0, 0, 0, 0, 0, 0, 0, 0]"] ;
544 -> 545 ;
546 [label="entropy = 0.0\nsamples = 2\nvalue = [0, 0, 0, 0, 0, 0, 2, 0, 0, 0, 0, 0, 0, 0\n0, 0, 0, 0, 0, 0, 0, 0, 0, 0, 0, 0, 0]"] ;
544 -> 546 ;
547 [label="entropy = 0.0\nsamples = 3\nvalue = [0, 0, 0, 0, 0, 3, 0, 0, 0, 0, 0, 0, 0, 0\n0, 0, 0, 0, 0, 0, 0, 0, 0, 0, 0, 0, 0]"] ;
543 -> 547 ;
548 [label="entropy = 0.0\nsamples = 3\nvalue = [0, 0, 0, 0, 0, 0, 3, 0, 0, 0, 0, 0, 0, 0\n0, 0, 0, 0, 0, 0, 0, 0, 0, 0, 0, 0, 0]"] ;
542 -> 548 ;
549 [label="X[3] <= 0.113\nentropy = 2.052\nsamples = 47\nvalue = [0, 0, 0, 0, 12, 20, 6, 7, 0, 1, 0, 0, 1, 0\n0, 0, 0, 0, 0, 0, 0, 0, 0, 0, 0, 0, 0]"] ;
529 -> 549 ;
550 [label="X[7] <= 0.11\nentropy = 1.809\nsamples = 29\nvalue = [0, 0, 0, 0, 4, 14, 6, 5, 0, 0, 0, 0, 0, 0\n0, 0, 0, 0, 0, 0, 0, 0, 0, 0, 0, 0, 0]"] ;
549 -> 550 ;
551 [label="X[6] <= 0.08\nentropy = 1.922\nsamples = 13\nvalue = [0, 0, 0, 0, 3, 3, 5, 2, 0, 0, 0, 0, 0, 0\n0, 0, 0, 0, 0, 0, 0, 0, 0, 0, 0, 0, 0]"] ;
550 -> 551 ;
552 [label="X[1] <= 0.453\nentropy = 1.449\nsamples = 7\nvalue = [0, 0, 0, 0, 1, 3, 3, 0, 0, 0, 0, 0, 0, 0\n0, 0, 0, 0, 0, 0, 0, 0, 0, 0, 0, 0, 0]"] ;
551 -> 552 ;
553 [label="entropy = 0.0\nsamples = 3\nvalue = [0, 0, 0, 0, 0, 3, 0, 0, 0, 0, 0, 0, 0, 0\n0, 0, 0, 0, 0, 0, 0, 0, 0, 0, 0, 0, 0]"] ;
552 -> 553 ;
554 [label="X[6] <= 0.051\nentropy = 0.811\nsamples = 4\nvalue = [0, 0, 0, 0, 1, 0, 3, 0, 0, 0, 0, 0, 0, 0\n0, 0, 0, 0, 0, 0, 0, 0, 0, 0, 0, 0, 0]"] ;
552 -> 554 ;
555 [label="entropy = 0.0\nsamples = 1\nvalue = [0, 0, 0, 0, 1, 0, 0, 0, 0, 0, 0, 0, 0, 0\n0, 0, 0, 0, 0, 0, 0, 0, 0, 0, 0, 0, 0]"] ;
554 -> 555 ;
556 [label="entropy = 0.0\nsamples = 3\nvalue = [0, 0, 0, 0, 0, 0, 3, 0, 0, 0, 0, 0, 0, 0\n0, 0, 0, 0, 0, 0, 0, 0, 0, 0, 0, 0, 0]"] ;
554 -> 556 ;
557 [label="X[6] <= 0.09\nentropy = 1.585\nsamples = 6\nvalue = [0, 0, 0, 0, 2, 0, 2, 2, 0, 0, 0, 0, 0, 0\n0, 0, 0, 0, 0, 0, 0, 0, 0, 0, 0, 0, 0]"] ;
551 -> 557 ;
558 [label="X[2] <= 0.33\nentropy = 0.918\nsamples = 3\nvalue = [0, 0, 0, 0, 2, 0, 0, 1, 0, 0, 0, 0, 0, 0\n0, 0, 0, 0, 0, 0, 0, 0, 0, 0, 0, 0, 0]"] ;
557 -> 558 ;
559 [label="entropy = 0.0\nsamples = 2\nvalue = [0, 0, 0, 0, 2, 0, 0, 0, 0, 0, 0, 0, 0, 0\n0, 0, 0, 0, 0, 0, 0, 0, 0, 0, 0, 0, 0]"] ;
558 -> 559 ;
560 [label="entropy = 0.0\nsamples = 1\nvalue = [0, 0, 0, 0, 0, 0, 0, 1, 0, 0, 0, 0, 0, 0\n0, 0, 0, 0, 0, 0, 0, 0, 0, 0, 0, 0, 0]"] ;
558 -> 560 ;
561 [label="X[6] <= 0.139\nentropy = 0.918\nsamples = 3\nvalue = [0, 0, 0, 0, 0, 0, 2, 1, 0, 0, 0, 0, 0, 0\n0, 0, 0, 0, 0, 0, 0, 0, 0, 0, 0, 0, 0]"] ;
557 -> 561 ;
562 [label="entropy = 0.0\nsamples = 2\nvalue = [0, 0, 0, 0, 0, 0, 2, 0, 0, 0, 0, 0, 0, 0\n0, 0, 0, 0, 0, 0, 0, 0, 0, 0, 0, 0, 0]"] ;
561 -> 562 ;
563 [label="entropy = 0.0\nsamples = 1\nvalue = [0, 0, 0, 0, 0, 0, 0, 1, 0, 0, 0, 0, 0, 0\n0, 0, 0, 0, 0, 0, 0, 0, 0, 0, 0, 0, 0]"] ;
561 -> 563 ;
564 [label="X[6] <= 0.091\nentropy = 1.324\nsamples = 16\nvalue = [0, 0, 0, 0, 1, 11, 1, 3, 0, 0, 0, 0, 0, 0\n0, 0, 0, 0, 0, 0, 0, 0, 0, 0, 0, 0, 0]"] ;
550 -> 564 ;
565 [label="X[2] <= 0.347\nentropy = 1.352\nsamples = 9\nvalue = [0, 0, 0, 0, 1, 5, 0, 3, 0, 0, 0, 0, 0, 0\n0, 0, 0, 0, 0, 0, 0, 0, 0, 0, 0, 0, 0]"] ;
564 -> 565 ;
566 [label="X[6] <= 0.089\nentropy = 0.65\nsamples = 6\nvalue = [0, 0, 0, 0, 0, 5, 0, 1, 0, 0, 0, 0, 0, 0\n0, 0, 0, 0, 0, 0, 0, 0, 0, 0, 0, 0, 0]"] ;
565 -> 566 ;
567 [label="entropy = 0.0\nsamples = 5\nvalue = [0, 0, 0, 0, 0, 5, 0, 0, 0, 0, 0, 0, 0, 0\n0, 0, 0, 0, 0, 0, 0, 0, 0, 0, 0, 0, 0]"] ;
566 -> 567 ;
568 [label="entropy = 0.0\nsamples = 1\nvalue = [0, 0, 0, 0, 0, 0, 0, 1, 0, 0, 0, 0, 0, 0\n0, 0, 0, 0, 0, 0, 0, 0, 0, 0, 0, 0, 0]"] ;
566 -> 568 ;
569 [label="X[7] <= 0.115\nentropy = 0.918\nsamples = 3\nvalue = [0, 0, 0, 0, 1, 0, 0, 2, 0, 0, 0, 0, 0, 0\n0, 0, 0, 0, 0, 0, 0, 0, 0, 0, 0, 0, 0]"] ;
565 -> 569 ;
570 [label="entropy = 0.0\nsamples = 2\nvalue = [0, 0, 0, 0, 0, 0, 0, 2, 0, 0, 0, 0, 0, 0\n0, 0, 0, 0, 0, 0, 0, 0, 0, 0, 0, 0, 0]"] ;
569 -> 570 ;
571 [label="entropy = 0.0\nsamples = 1\nvalue = [0, 0, 0, 0, 1, 0, 0, 0, 0, 0, 0, 0, 0, 0\n0, 0, 0, 0, 0, 0, 0, 0, 0, 0, 0, 0, 0]"] ;
569 -> 571 ;
572 [label="X[4] <= 0.407\nentropy = 0.592\nsamples = 7\nvalue = [0, 0, 0, 0, 0, 6, 1, 0, 0, 0, 0, 0, 0, 0\n0, 0, 0, 0, 0, 0, 0, 0, 0, 0, 0, 0, 0]"] ;
564 -> 572 ;
573 [label="entropy = 0.0\nsamples = 1\nvalue = [0, 0, 0, 0, 0, 0, 1, 0, 0, 0, 0, 0, 0, 0\n0, 0, 0, 0, 0, 0, 0, 0, 0, 0, 0, 0, 0]"] ;
572 -> 573 ;
574 [label="entropy = 0.0\nsamples = 6\nvalue = [0, 0, 0, 0, 0, 6, 0, 0, 0, 0, 0, 0, 0, 0\n0, 0, 0, 0, 0, 0, 0, 0, 0, 0, 0, 0, 0]"] ;
572 -> 574 ;
575 [label="X[6] <= 0.1\nentropy = 1.864\nsamples = 18\nvalue = [0, 0, 0, 0, 8, 6, 0, 2, 0, 1, 0, 0, 1, 0\n0, 0, 0, 0, 0, 0, 0, 0, 0, 0, 0, 0, 0]"] ;
549 -> 575 ;
576 [label="X[7] <= 0.114\nentropy = 1.617\nsamples = 11\nvalue = [0, 0, 0, 0, 3, 6, 0, 1, 0, 0, 0, 0, 1, 0\n0, 0, 0, 0, 0, 0, 0, 0, 0, 0, 0, 0, 0]"] ;
575 -> 576 ;
577 [label="X[2] <= 0.32\nentropy = 0.65\nsamples = 6\nvalue = [0, 0, 0, 0, 0, 5, 0, 1, 0, 0, 0, 0, 0, 0\n0, 0, 0, 0, 0, 0, 0, 0, 0, 0, 0, 0, 0]"] ;
576 -> 577 ;
578 [label="entropy = 0.0\nsamples = 1\nvalue = [0, 0, 0, 0, 0, 0, 0, 1, 0, 0, 0, 0, 0, 0\n0, 0, 0, 0, 0, 0, 0, 0, 0, 0, 0, 0, 0]"] ;
577 -> 578 ;
579 [label="entropy = 0.0\nsamples = 5\nvalue = [0, 0, 0, 0, 0, 5, 0, 0, 0, 0, 0, 0, 0, 0\n0, 0, 0, 0, 0, 0, 0, 0, 0, 0, 0, 0, 0]"] ;
577 -> 579 ;
580 [label="X[6] <= 0.096\nentropy = 1.371\nsamples = 5\nvalue = [0, 0, 0, 0, 3, 1, 0, 0, 0, 0, 0, 0, 1, 0\n0, 0, 0, 0, 0, 0, 0, 0, 0, 0, 0, 0, 0]"] ;
576 -> 580 ;
581 [label="X[3] <= 0.13\nentropy = 0.811\nsamples = 4\nvalue = [0, 0, 0, 0, 3, 0, 0, 0, 0, 0, 0, 0, 1, 0\n0, 0, 0, 0, 0, 0, 0, 0, 0, 0, 0, 0, 0]"] ;
580 -> 581 ;
582 [label="entropy = 0.0\nsamples = 3\nvalue = [0, 0, 0, 0, 3, 0, 0, 0, 0, 0, 0, 0, 0, 0\n0, 0, 0, 0, 0, 0, 0, 0, 0, 0, 0, 0, 0]"] ;
581 -> 582 ;
583 [label="entropy = 0.0\nsamples = 1\nvalue = [0, 0, 0, 0, 0, 0, 0, 0, 0, 0, 0, 0, 1, 0\n0, 0, 0, 0, 0, 0, 0, 0, 0, 0, 0, 0, 0]"] ;
581 -> 583 ;
584 [label="entropy = 0.0\nsamples = 1\nvalue = [0, 0, 0, 0, 0, 1, 0, 0, 0, 0, 0, 0, 0, 0\n0, 0, 0, 0, 0, 0, 0, 0, 0, 0, 0, 0, 0]"] ;
580 -> 584 ;
585 [label="X[3] <= 0.138\nentropy = 1.149\nsamples = 7\nvalue = [0, 0, 0, 0, 5, 0, 0, 1, 0, 1, 0, 0, 0, 0\n0, 0, 0, 0, 0, 0, 0, 0, 0, 0, 0, 0, 0]"] ;
575 -> 585 ;
586 [label="X[2] <= 0.352\nentropy = 0.65\nsamples = 6\nvalue = [0, 0, 0, 0, 5, 0, 0, 0, 0, 1, 0, 0, 0, 0\n0, 0, 0, 0, 0, 0, 0, 0, 0, 0, 0, 0, 0]"] ;
585 -> 586 ;
587 [label="entropy = 0.0\nsamples = 5\nvalue = [0, 0, 0, 0, 5, 0, 0, 0, 0, 0, 0, 0, 0, 0\n0, 0, 0, 0, 0, 0, 0, 0, 0, 0, 0, 0, 0]"] ;
586 -> 587 ;
588 [label="entropy = 0.0\nsamples = 1\nvalue = [0, 0, 0, 0, 0, 0, 0, 0, 0, 1, 0, 0, 0, 0\n0, 0, 0, 0, 0, 0, 0, 0, 0, 0, 0, 0, 0]"] ;
586 -> 588 ;
589 [label="entropy = 0.0\nsamples = 1\nvalue = [0, 0, 0, 0, 0, 0, 0, 1, 0, 0, 0, 0, 0, 0\n0, 0, 0, 0, 0, 0, 0, 0, 0, 0, 0, 0, 0]"] ;
585 -> 589 ;
590 [label="X[1] <= 0.403\nentropy = 2.808\nsamples = 95\nvalue = [0, 0, 0, 0, 9, 21, 16, 24, 9, 8, 4, 1, 1, 2\n0, 0, 0, 0, 0, 0, 0, 0, 0, 0, 0, 0, 0]"] ;
194 -> 590 ;
591 [label="X[2] <= 0.278\nentropy = 2.743\nsamples = 65\nvalue = [0, 0, 0, 0, 8, 11, 8, 18, 9, 6, 4, 1, 0, 0\n0, 0, 0, 0, 0, 0, 0, 0, 0, 0, 0, 0, 0]"] ;
590 -> 591 ;
592 [label="X[4] <= 0.21\nentropy = 2.656\nsamples = 34\nvalue = [0, 0, 0, 0, 7, 8, 4, 6, 6, 1, 1, 1, 0, 0\n0, 0, 0, 0, 0, 0, 0, 0, 0, 0, 0, 0, 0]"] ;
591 -> 592 ;
593 [label="X[1] <= 0.352\nentropy = 2.439\nsamples = 21\nvalue = [0, 0, 0, 0, 1, 4, 2, 6, 6, 1, 1, 0, 0, 0\n0, 0, 0, 0, 0, 0, 0, 0, 0, 0, 0, 0, 0]"] ;
592 -> 593 ;
594 [label="X[1] <= 0.328\nentropy = 2.194\nsamples = 19\nvalue = [0, 0, 0, 0, 1, 4, 0, 6, 6, 1, 1, 0, 0, 0\n0, 0, 0, 0, 0, 0, 0, 0, 0, 0, 0, 0, 0]"] ;
593 -> 594 ;
595 [label="X[5] <= 0.05\nentropy = 1.522\nsamples = 5\nvalue = [0, 0, 0, 0, 1, 2, 0, 2, 0, 0, 0, 0, 0, 0\n0, 0, 0, 0, 0, 0, 0, 0, 0, 0, 0, 0, 0]"] ;
594 -> 595 ;
596 [label="entropy = 0.0\nsamples = 2\nvalue = [0, 0, 0, 0, 0, 0, 0, 2, 0, 0, 0, 0, 0, 0\n0, 0, 0, 0, 0, 0, 0, 0, 0, 0, 0, 0, 0]"] ;
595 -> 596 ;
597 [label="X[1] <= 0.305\nentropy = 0.918\nsamples = 3\nvalue = [0, 0, 0, 0, 1, 2, 0, 0, 0, 0, 0, 0, 0, 0\n0, 0, 0, 0, 0, 0, 0, 0, 0, 0, 0, 0, 0]"] ;
595 -> 597 ;
598 [label="entropy = 0.0\nsamples = 1\nvalue = [0, 0, 0, 0, 1, 0, 0, 0, 0, 0, 0, 0, 0, 0\n0, 0, 0, 0, 0, 0, 0, 0, 0, 0, 0, 0, 0]"] ;
597 -> 598 ;
599 [label="entropy = 0.0\nsamples = 2\nvalue = [0, 0, 0, 0, 0, 2, 0, 0, 0, 0, 0, 0, 0, 0\n0, 0, 0, 0, 0, 0, 0, 0, 0, 0, 0, 0, 0]"] ;
597 -> 599 ;
600 [label="X[4] <= 0.179\nentropy = 1.985\nsamples = 14\nvalue = [0, 0, 0, 0, 0, 2, 0, 4, 6, 1, 1, 0, 0, 0\n0, 0, 0, 0, 0, 0, 0, 0, 0, 0, 0, 0, 0]"] ;
594 -> 600 ;
601 [label="X[4] <= 0.167\nentropy = 1.5\nsamples = 4\nvalue = [0, 0, 0, 0, 0, 0, 0, 0, 2, 1, 1, 0, 0, 0\n0, 0, 0, 0, 0, 0, 0, 0, 0, 0, 0, 0, 0]"] ;
600 -> 601 ;
602 [label="entropy = 0.0\nsamples = 2\nvalue = [0, 0, 0, 0, 0, 0, 0, 0, 2, 0, 0, 0, 0, 0\n0, 0, 0, 0, 0, 0, 0, 0, 0, 0, 0, 0, 0]"] ;
601 -> 602 ;
603 [label="X[2] <= 0.255\nentropy = 1.0\nsamples = 2\nvalue = [0, 0, 0, 0, 0, 0, 0, 0, 0, 1, 1, 0, 0, 0\n0, 0, 0, 0, 0, 0, 0, 0, 0, 0, 0, 0, 0]"] ;
601 -> 603 ;
604 [label="entropy = 0.0\nsamples = 1\nvalue = [0, 0, 0, 0, 0, 0, 0, 0, 0, 1, 0, 0, 0, 0\n0, 0, 0, 0, 0, 0, 0, 0, 0, 0, 0, 0, 0]"] ;
603 -> 604 ;
605 [label="entropy = 0.0\nsamples = 1\nvalue = [0, 0, 0, 0, 0, 0, 0, 0, 0, 0, 1, 0, 0, 0\n0, 0, 0, 0, 0, 0, 0, 0, 0, 0, 0, 0, 0]"] ;
603 -> 605 ;
606 [label="X[4] <= 0.198\nentropy = 1.522\nsamples = 10\nvalue = [0, 0, 0, 0, 0, 2, 0, 4, 4, 0, 0, 0, 0, 0\n0, 0, 0, 0, 0, 0, 0, 0, 0, 0, 0, 0, 0]"] ;
600 -> 606 ;
607 [label="X[5] <= 0.076\nentropy = 1.5\nsamples = 8\nvalue = [0, 0, 0, 0, 0, 2, 0, 4, 2, 0, 0, 0, 0, 0\n0, 0, 0, 0, 0, 0, 0, 0, 0, 0, 0, 0, 0]"] ;
606 -> 607 ;
608 [label="X[5] <= 0.07\nentropy = 1.0\nsamples = 4\nvalue = [0, 0, 0, 0, 0, 2, 0, 2, 0, 0, 0, 0, 0, 0\n0, 0, 0, 0, 0, 0, 0, 0, 0, 0, 0, 0, 0]"] ;
607 -> 608 ;
609 [label="entropy = 0.0\nsamples = 1\nvalue = [0, 0, 0, 0, 0, 0, 0, 1, 0, 0, 0, 0, 0, 0\n0, 0, 0, 0, 0, 0, 0, 0, 0, 0, 0, 0, 0]"] ;
608 -> 609 ;
610 [label="X[5] <= 0.074\nentropy = 0.918\nsamples = 3\nvalue = [0, 0, 0, 0, 0, 2, 0, 1, 0, 0, 0, 0, 0, 0\n0, 0, 0, 0, 0, 0, 0, 0, 0, 0, 0, 0, 0]"] ;
608 -> 610 ;
611 [label="entropy = 0.0\nsamples = 1\nvalue = [0, 0, 0, 0, 0, 1, 0, 0, 0, 0, 0, 0, 0, 0\n0, 0, 0, 0, 0, 0, 0, 0, 0, 0, 0, 0, 0]"] ;
610 -> 611 ;
612 [label="X[6] <= 0.041\nentropy = 1.0\nsamples = 2\nvalue = [0, 0, 0, 0, 0, 1, 0, 1, 0, 0, 0, 0, 0, 0\n0, 0, 0, 0, 0, 0, 0, 0, 0, 0, 0, 0, 0]"] ;
610 -> 612 ;
613 [label="entropy = 0.0\nsamples = 1\nvalue = [0, 0, 0, 0, 0, 0, 0, 1, 0, 0, 0, 0, 0, 0\n0, 0, 0, 0, 0, 0, 0, 0, 0, 0, 0, 0, 0]"] ;
612 -> 613 ;
614 [label="entropy = 0.0\nsamples = 1\nvalue = [0, 0, 0, 0, 0, 1, 0, 0, 0, 0, 0, 0, 0, 0\n0, 0, 0, 0, 0, 0, 0, 0, 0, 0, 0, 0, 0]"] ;
612 -> 614 ;
615 [label="X[6] <= 0.04\nentropy = 1.0\nsamples = 4\nvalue = [0, 0, 0, 0, 0, 0, 0, 2, 2, 0, 0, 0, 0, 0\n0, 0, 0, 0, 0, 0, 0, 0, 0, 0, 0, 0, 0]"] ;
607 -> 615 ;
616 [label="entropy = 0.0\nsamples = 2\nvalue = [0, 0, 0, 0, 0, 0, 0, 2, 0, 0, 0, 0, 0, 0\n0, 0, 0, 0, 0, 0, 0, 0, 0, 0, 0, 0, 0]"] ;
615 -> 616 ;
617 [label="entropy = 0.0\nsamples = 2\nvalue = [0, 0, 0, 0, 0, 0, 0, 0, 2, 0, 0, 0, 0, 0\n0, 0, 0, 0, 0, 0, 0, 0, 0, 0, 0, 0, 0]"] ;
615 -> 617 ;
618 [label="entropy = 0.0\nsamples = 2\nvalue = [0, 0, 0, 0, 0, 0, 0, 0, 2, 0, 0, 0, 0, 0\n0, 0, 0, 0, 0, 0, 0, 0, 0, 0, 0, 0, 0]"] ;
606 -> 618 ;
619 [label="entropy = 0.0\nsamples = 2\nvalue = [0, 0, 0, 0, 0, 0, 2, 0, 0, 0, 0, 0, 0, 0\n0, 0, 0, 0, 0, 0, 0, 0, 0, 0, 0, 0, 0]"] ;
593 -> 619 ;
620 [label="X[5] <= 0.092\nentropy = 1.738\nsamples = 13\nvalue = [0, 0, 0, 0, 6, 4, 2, 0, 0, 0, 0, 1, 0, 0\n0, 0, 0, 0, 0, 0, 0, 0, 0, 0, 0, 0, 0]"] ;
592 -> 620 ;
621 [label="entropy = 0.0\nsamples = 5\nvalue = [0, 0, 0, 0, 5, 0, 0, 0, 0, 0, 0, 0, 0, 0\n0, 0, 0, 0, 0, 0, 0, 0, 0, 0, 0, 0, 0]"] ;
620 -> 621 ;
622 [label="X[7] <= 0.088\nentropy = 1.75\nsamples = 8\nvalue = [0, 0, 0, 0, 1, 4, 2, 0, 0, 0, 0, 1, 0, 0\n0, 0, 0, 0, 0, 0, 0, 0, 0, 0, 0, 0, 0]"] ;
620 -> 622 ;
623 [label="X[7] <= 0.067\nentropy = 1.252\nsamples = 6\nvalue = [0, 0, 0, 0, 1, 4, 0, 0, 0, 0, 0, 1, 0, 0\n0, 0, 0, 0, 0, 0, 0, 0, 0, 0, 0, 0, 0]"] ;
622 -> 623 ;
624 [label="X[6] <= 0.052\nentropy = 1.0\nsamples = 2\nvalue = [0, 0, 0, 0, 1, 0, 0, 0, 0, 0, 0, 1, 0, 0\n0, 0, 0, 0, 0, 0, 0, 0, 0, 0, 0, 0, 0]"] ;
623 -> 624 ;
625 [label="entropy = 0.0\nsamples = 1\nvalue = [0, 0, 0, 0, 0, 0, 0, 0, 0, 0, 0, 1, 0, 0\n0, 0, 0, 0, 0, 0, 0, 0, 0, 0, 0, 0, 0]"] ;
624 -> 625 ;
626 [label="entropy = 0.0\nsamples = 1\nvalue = [0, 0, 0, 0, 1, 0, 0, 0, 0, 0, 0, 0, 0, 0\n0, 0, 0, 0, 0, 0, 0, 0, 0, 0, 0, 0, 0]"] ;
624 -> 626 ;
627 [label="entropy = 0.0\nsamples = 4\nvalue = [0, 0, 0, 0, 0, 4, 0, 0, 0, 0, 0, 0, 0, 0\n0, 0, 0, 0, 0, 0, 0, 0, 0, 0, 0, 0, 0]"] ;
623 -> 627 ;
628 [label="entropy = 0.0\nsamples = 2\nvalue = [0, 0, 0, 0, 0, 0, 2, 0, 0, 0, 0, 0, 0, 0\n0, 0, 0, 0, 0, 0, 0, 0, 0, 0, 0, 0, 0]"] ;
622 -> 628 ;
629 [label="X[4] <= 0.252\nentropy = 2.474\nsamples = 31\nvalue = [0, 0, 0, 0, 1, 3, 4, 12, 3, 5, 3, 0, 0, 0\n0, 0, 0, 0, 0, 0, 0, 0, 0, 0, 0, 0, 0]"] ;
591 -> 629 ;
630 [label="X[4] <= 0.24\nentropy = 2.118\nsamples = 11\nvalue = [0, 0, 0, 0, 0, 1, 4, 3, 1, 2, 0, 0, 0, 0\n0, 0, 0, 0, 0, 0, 0, 0, 0, 0, 0, 0, 0]"] ;
629 -> 630 ;
631 [label="X[2] <= 0.282\nentropy = 1.371\nsamples = 5\nvalue = [0, 0, 0, 0, 0, 1, 1, 3, 0, 0, 0, 0, 0, 0\n0, 0, 0, 0, 0, 0, 0, 0, 0, 0, 0, 0, 0]"] ;
630 -> 631 ;
632 [label="X[6] <= 0.054\nentropy = 1.0\nsamples = 2\nvalue = [0, 0, 0, 0, 0, 1, 1, 0, 0, 0, 0, 0, 0, 0\n0, 0, 0, 0, 0, 0, 0, 0, 0, 0, 0, 0, 0]"] ;
631 -> 632 ;
633 [label="entropy = 0.0\nsamples = 1\nvalue = [0, 0, 0, 0, 0, 1, 0, 0, 0, 0, 0, 0, 0, 0\n0, 0, 0, 0, 0, 0, 0, 0, 0, 0, 0, 0, 0]"] ;
632 -> 633 ;
634 [label="entropy = 0.0\nsamples = 1\nvalue = [0, 0, 0, 0, 0, 0, 1, 0, 0, 0, 0, 0, 0, 0\n0, 0, 0, 0, 0, 0, 0, 0, 0, 0, 0, 0, 0]"] ;
632 -> 634 ;
635 [label="entropy = 0.0\nsamples = 3\nvalue = [0, 0, 0, 0, 0, 0, 0, 3, 0, 0, 0, 0, 0, 0\n0, 0, 0, 0, 0, 0, 0, 0, 0, 0, 0, 0, 0]"] ;
631 -> 635 ;
636 [label="X[5] <= 0.108\nentropy = 1.459\nsamples = 6\nvalue = [0, 0, 0, 0, 0, 0, 3, 0, 1, 2, 0, 0, 0, 0\n0, 0, 0, 0, 0, 0, 0, 0, 0, 0, 0, 0, 0]"] ;
630 -> 636 ;
637 [label="X[4] <= 0.248\nentropy = 0.971\nsamples = 5\nvalue = [0, 0, 0, 0, 0, 0, 3, 0, 0, 2, 0, 0, 0, 0\n0, 0, 0, 0, 0, 0, 0, 0, 0, 0, 0, 0, 0]"] ;
636 -> 637 ;
638 [label="X[3] <= 0.102\nentropy = 0.918\nsamples = 3\nvalue = [0, 0, 0, 0, 0, 0, 1, 0, 0, 2, 0, 0, 0, 0\n0, 0, 0, 0, 0, 0, 0, 0, 0, 0, 0, 0, 0]"] ;
637 -> 638 ;
639 [label="entropy = 0.0\nsamples = 2\nvalue = [0, 0, 0, 0, 0, 0, 0, 0, 0, 2, 0, 0, 0, 0\n0, 0, 0, 0, 0, 0, 0, 0, 0, 0, 0, 0, 0]"] ;
638 -> 639 ;
640 [label="entropy = 0.0\nsamples = 1\nvalue = [0, 0, 0, 0, 0, 0, 1, 0, 0, 0, 0, 0, 0, 0\n0, 0, 0, 0, 0, 0, 0, 0, 0, 0, 0, 0, 0]"] ;
638 -> 640 ;
641 [label="entropy = 0.0\nsamples = 2\nvalue = [0, 0, 0, 0, 0, 0, 2, 0, 0, 0, 0, 0, 0, 0\n0, 0, 0, 0, 0, 0, 0, 0, 0, 0, 0, 0, 0]"] ;
637 -> 641 ;
642 [label="entropy = 0.0\nsamples = 1\nvalue = [0, 0, 0, 0, 0, 0, 0, 0, 1, 0, 0, 0, 0, 0\n0, 0, 0, 0, 0, 0, 0, 0, 0, 0, 0, 0, 0]"] ;
636 -> 642 ;
